{
  "weights": {
    "fc1.weight": [
      [
        0.255542516708374,
        0.2845918536186218,
        -0.05649729445576668,
        0.42469120025634766,
        0.17279373109340668,
        0.1911681443452835,
        -0.060599930584430695,
        0.12556999921798706,
        0.40033096075057983
      ],
      [
        -0.38724204897880554,
        0.2284715324640274,
        0.025125619024038315,
        0.28334006667137146,
        0.27377617359161377,
        0.23811116814613342,
        0.01260089036077261,
        0.11514683812856674,
        0.1108311265707016
      ],
      [
        -0.15561330318450928,
        0.08496609330177307,
        -0.15357887744903564,
        -0.03909096121788025,
        -0.13538610935211182,
        0.22112366557121277,
        -0.26312339305877686,
        -0.15367011725902557,
        -0.09412491321563721
      ],
      [
        -0.2362401783466339,
        0.042436033487319946,
        -0.27447012066841125,
        0.45305922627449036,
        -0.011891196481883526,
        0.3927810490131378,
        0.17950718104839325,
        -0.1508057564496994,
        0.3548572063446045
      ],
      [
        0.00864799227565527,
        0.27928054332733154,
        0.07690422981977463,
        -0.000934054609388113,
        0.36141538619995117,
        0.042773883789777756,
        0.2616352140903473,
        0.2247696816921234,
        0.3265782594680786
      ],
      [
        -0.37091127038002014,
        0.15190070867538452,
        0.19759468734264374,
        0.3423795700073242,
        -0.2737971842288971,
        -0.3231690227985382,
        0.08235584944486618,
        -0.5509308576583862,
        0.3762573003768921
      ],
      [
        0.03580845892429352,
        0.1727573424577713,
        0.14942362904548645,
        0.13035695254802704,
        0.5142494440078735,
        -0.11792919039726257,
        0.1287674605846405,
        -0.31953132152557373,
        0.22939567267894745
      ],
      [
        -0.11428254097700119,
        -0.15390433371067047,
        -0.15963956713676453,
        0.4220242202281952,
        -0.2607865333557129,
        -0.17196330428123474,
        -0.31330984830856323,
        0.37839189171791077,
        0.07629653066396713
      ],
      [
        0.32242658734321594,
        -0.4505971670150757,
        -0.5620545148849487,
        -0.1459607034921646,
        -0.20251598954200745,
        0.1406257301568985,
        0.1138240173459053,
        0.3108736276626587,
        0.03883551061153412
      ],
      [
        -0.2958407998085022,
        0.1526801437139511,
        -0.1002916470170021,
        0.3409547507762909,
        0.20355604588985443,
        0.33637452125549316,
        -0.16596724092960358,
        -0.22465410828590393,
        0.22010786831378937
      ],
      [
        -0.03478831797838211,
        -0.0958862379193306,
        0.22487814724445343,
        0.34545743465423584,
        0.025659410282969475,
        -0.05538703501224518,
        0.43397125601768494,
        -0.24165281653404236,
        0.002571025863289833
      ],
      [
        -0.3225315511226654,
        -0.19089007377624512,
        0.08326789736747742,
        -0.043997734785079956,
        -0.2419620007276535,
        0.007818907499313354,
        -0.2276938408613205,
        -0.2827988862991333,
        -0.18355421721935272
      ],
      [
        -0.2917373776435852,
        -0.21224603056907654,
        0.333202987909317,
        0.06295832991600037,
        0.10271990299224854,
        -0.31089478731155396,
        -0.2189246118068695,
        -0.11095194518566132,
        0.052123695611953735
      ],
      [
        -0.2933071255683899,
        -0.14362435042858124,
        -0.19955620169639587,
        0.0009237527847290039,
        -0.12403440475463867,
        -0.02309858798980713,
        -0.2258765697479248,
        -0.22879838943481445,
        -0.19446727633476257
      ],
      [
        -0.08307420462369919,
        -0.1523454487323761,
        0.10067787766456604,
        -0.10548779368400574,
        0.44321975111961365,
        0.20573347806930542,
        -0.38269010186195374,
        0.4706224203109741,
        0.002333521144464612
      ],
      [
        -0.10811818391084671,
        -0.13447006046772003,
        -0.35234975814819336,
        0.21572458744049072,
        -0.0037072335835546255,
        0.19220174849033356,
        -0.22818699479103088,
        0.3420277237892151,
        -0.20362718403339386
      ],
      [
        -0.1755933165550232,
        0.2094789296388626,
        0.1986532062292099,
        0.2639836072921753,
        0.5332401990890503,
        -0.1871284693479538,
        0.1841447800397873,
        -0.3703659176826477,
        0.05096820369362831
      ],
      [
        -0.271122545003891,
        0.29627472162246704,
        -0.2157638669013977,
        0.2883833944797516,
        0.39858922362327576,
        0.2572411298751831,
        -0.07581255584955215,
        0.2599058151245117,
        0.19879288971424103
      ],
      [
        0.12193787097930908,
        -0.3042057752609253,
        0.19350869953632355,
        -0.01592455618083477,
        0.12570880353450775,
        0.4220435917377472,
        0.21990445256233215,
        -0.21323880553245544,
        -0.07839673012495041
      ],
      [
        -0.015918582677841187,
        0.1861204206943512,
        -0.085177943110466,
        -0.1901916265487671,
        -0.11414763331413269,
        -0.24902495741844177,
        0.11887750029563904,
        0.25801339745521545,
        -0.3138134479522705
      ],
      [
        -0.014514059759676456,
        0.17761220037937164,
        0.08246887475252151,
        -0.028052134439349174,
        0.43570828437805176,
        0.29037201404571533,
        0.250288188457489,
        -0.19642892479896545,
        0.03908580169081688
      ],
      [
        -0.010965179651975632,
        -0.06752975285053253,
        -0.06223990023136139,
        0.33610308170318604,
        0.5752415657043457,
        0.11214762926101685,
        0.047565314918756485,
        -0.06548067927360535,
        0.10005676001310349
      ],
      [
        0.008172815665602684,
        0.06349077820777893,
        -0.2760195732116699,
        -0.039598435163497925,
        0.5597904324531555,
        0.26176443696022034,
        0.09363329410552979,
        -0.2959993779659271,
        -0.08807604759931564
      ],
      [
        -0.33038124442100525,
        -0.10478740185499191,
        0.19403387606143951,
        0.3826523721218109,
        0.4595203995704651,
        -0.1270187944173813,
        -0.07124748080968857,
        -0.07137938588857651,
        0.46414217352867126
      ],
      [
        0.004358543548732996,
        -0.11256247013807297,
        0.0900668203830719,
        -0.16905319690704346,
        -0.26432690024375916,
        0.19478780031204224,
        -0.19916141033172607,
        -0.10733010619878769,
        -0.37367379665374756
      ],
      [
        0.087811678647995,
        0.4788682162761688,
        0.08415243774652481,
        -0.4166732430458069,
        -0.4295203983783722,
        -0.25486046075820923,
        0.22384917736053467,
        0.20114822685718536,
        0.4763602316379547
      ],
      [
        0.1746232807636261,
        0.08436405658721924,
        -0.00326421856880188,
        -0.2535020112991333,
        -0.2855907380580902,
        -0.3117828965187073,
        0.13645398616790771,
        -0.16365599632263184,
        -0.06708419322967529
      ],
      [
        -0.19796760380268097,
        -0.08835813403129578,
        -0.26955825090408325,
        -0.25149139761924744,
        0.07511948049068451,
        -0.13623405992984772,
        0.17033018171787262,
        -0.13361823558807373,
        -0.26390984654426575
      ],
      [
        -0.10326429456472397,
        -0.11695709079504013,
        -0.028426000848412514,
        -0.19068880379199982,
        0.49488356709480286,
        -0.06721010059118271,
        0.33047592639923096,
        0.055490195751190186,
        0.4182116389274597
      ],
      [
        -0.79770827293396,
        0.27001670002937317,
        -0.396402508020401,
        0.04415889456868172,
        0.5087950229644775,
        0.01638718508183956,
        -0.01897498033940792,
        -0.0611177533864975,
        -0.307435542345047
      ],
      [
        0.4307924807071686,
        -0.5009011626243591,
        0.19181473553180695,
        0.15228451788425446,
        0.3919318616390228,
        -0.08407086879014969,
        -0.45259448885917664,
        -0.11271513998508453,
        0.0826709195971489
      ],
      [
        -0.33176958560943604,
        -0.07566121220588684,
        -0.19981849193572998,
        -0.029154568910598755,
        -0.16407117247581482,
        -0.13625586032867432,
        -0.10581962764263153,
        -0.31676802039146423,
        0.27350249886512756
      ],
      [
        0.27944377064704895,
        -0.0522896945476532,
        -0.03796067833900452,
        -0.13603997230529785,
        -0.30102095007896423,
        -0.3243814706802368,
        0.12388613820075989,
        -0.1830153912305832,
        -0.21429233253002167
      ],
      [
        -0.026007741689682007,
        -0.11100372672080994,
        -0.10784026980400085,
        0.010710388422012329,
        -0.0707041323184967,
        -0.1147708147764206,
        -0.15960197150707245,
        -0.2712758183479309,
        0.27950242161750793
      ],
      [
        -0.2053651511669159,
        0.057233620434999466,
        -0.09208350628614426,
        0.1368175894021988,
        0.5783547759056091,
        0.27984753251075745,
        -0.1952439844608307,
        0.03503764048218727,
        0.4258973002433777
      ],
      [
        0.018215857446193695,
        0.24072971940040588,
        0.35464733839035034,
        0.0698377937078476,
        0.332345575094223,
        -0.10564646869897842,
        0.049610890448093414,
        0.14032064378261566,
        0.29887524247169495
      ],
      [
        -0.21092967689037323,
        -0.2672950029373169,
        -0.22778789699077606,
        -0.32895922660827637,
        -0.2572129964828491,
        -0.08243247866630554,
        0.22495904564857483,
        0.055794090032577515,
        -0.2535351514816284
      ],
      [
        -0.25202476978302,
        0.28522950410842896,
        -0.3517329692840576,
        -0.1033358946442604,
        0.34686514735221863,
        -0.07025875896215439,
        -0.0026148133911192417,
        -0.035742685198783875,
        0.10429532825946808
      ],
      [
        -0.169010728597641,
        -0.29714614152908325,
        -0.2694523334503174,
        -0.17848722636699677,
        0.3219459354877472,
        -0.161004900932312,
        -0.22384266555309296,
        0.08079805970191956,
        0.09187009930610657
      ],
      [
        0.1470206081867218,
        0.2538113296031952,
        0.23301957547664642,
        -0.2144530564546585,
        0.30626431107521057,
        0.34399282932281494,
        0.087412990629673,
        -0.2741789221763611,
        0.4437998831272125
      ],
      [
        0.9147366881370544,
        -0.0867585614323616,
        -1.1752375364303589,
        0.12238527834415436,
        0.03423380106687546,
        0.09869394451379776,
        0.07813053578138351,
        -0.38628366589546204,
        0.06315619498491287
      ],
      [
        0.005869776010513306,
        0.30394473671913147,
        0.19230714440345764,
        -0.19407808780670166,
        -0.04326951503753662,
        -0.24572786688804626,
        -0.16080781817436218,
        0.06036612391471863,
        0.18151286244392395
      ],
      [
        0.2626853585243225,
        -0.27785250544548035,
        0.07896780222654343,
        -0.269697904586792,
        0.01539621688425541,
        0.1857128143310547,
        0.10571727156639099,
        0.20135752856731415,
        -0.259176105260849
      ],
      [
        -0.5021663904190063,
        0.3765657842159271,
        0.11131299287080765,
        0.14881332218647003,
        -0.12858673930168152,
        0.24791426956653595,
        0.2056412398815155,
        0.014920338056981564,
        -0.3783126175403595
      ],
      [
        -0.27058321237564087,
        0.010923870839178562,
        0.07058291137218475,
        -0.17433656752109528,
        -0.12331866472959518,
        0.19509372115135193,
        -0.0034995588939636946,
        -0.013876797631382942,
        -0.1037537157535553
      ],
      [
        -0.30186325311660767,
        -0.3134191632270813,
        -0.1593383550643921,
        -0.16944047808647156,
        0.10385119915008545,
        -0.0970369279384613,
        -0.13040737807750702,
        0.31780996918678284,
        0.11610761284828186
      ],
      [
        0.2376340925693512,
        -0.1613709181547165,
        -0.1361556053161621,
        0.12251350283622742,
        -0.22209171950817108,
        -0.217901349067688,
        -0.016099900007247925,
        -0.12192022800445557,
        -0.24988600611686707
      ],
      [
        0.43267229199409485,
        0.5616587400436401,
        0.058524779975414276,
        -0.38588547706604004,
        -0.3421138823032379,
        -0.07039368152618408,
        0.01945657469332218,
        0.49836063385009766,
        0.06494977325201035
      ],
      [
        -0.13178429007530212,
        0.18574205040931702,
        -0.265466570854187,
        0.21067264676094055,
        -0.12931828200817108,
        0.005101799964904785,
        -0.0658719539642334,
        0.04041299223899841,
        -0.10073280334472656
      ],
      [
        -0.0890352874994278,
        0.1288307011127472,
        0.17129257321357727,
        0.45737043023109436,
        -0.10290603339672089,
        -0.3198409080505371,
        0.44720661640167236,
        -0.021752096712589264,
        -0.08778028935194016
      ],
      [
        -0.3054579794406891,
        -0.8044145107269287,
        -0.2040768563747406,
        -0.28508391976356506,
        0.3029663860797882,
        0.16513310372829437,
        0.03784792497754097,
        0.49041807651519775,
        0.12259340286254883
      ],
      [
        -0.23299099504947662,
        -0.07196303457021713,
        0.027686385437846184,
        0.06365978717803955,
        -0.2934708595275879,
        0.06722316890954971,
        -0.2253575325012207,
        -0.30491766333580017,
        -0.21762984991073608
      ],
      [
        0.32085514068603516,
        0.2882113754749298,
        0.31696492433547974,
        0.29561540484428406,
        0.4953758120536804,
        0.07868506014347076,
        -0.0777275413274765,
        0.10858132690191269,
        -0.07891995459794998
      ],
      [
        -0.22495529055595398,
        -0.10644468665122986,
        0.0699530839920044,
        0.171598881483078,
        -0.12946967780590057,
        -0.1961887776851654,
        0.044964343309402466,
        -0.1964777410030365,
        -0.21702048182487488
      ],
      [
        0.1513044238090515,
        -0.054967351257801056,
        0.35778385400772095,
        0.44613775610923767,
        0.3791290521621704,
        0.26286330819129944,
        0.20811238884925842,
        -0.04412269964814186,
        0.10942669212818146
      ],
      [
        -0.4765169620513916,
        0.09320981800556183,
        0.5907068848609924,
        0.05903898924589157,
        -0.1424027979373932,
        -0.08598441630601883,
        0.042760055512189865,
        -0.13343434035778046,
        0.23470130562782288
      ],
      [
        0.21660751104354858,
        0.1829260289669037,
        -0.20590731501579285,
        -0.06339415162801743,
        0.1998790055513382,
        0.07600446790456772,
        0.1513911336660385,
        -0.39398881793022156,
        0.25356754660606384
      ],
      [
        0.6334608793258667,
        -0.38269469141960144,
        -1.174647569656372,
        0.19634796679019928,
        -0.45548391342163086,
        0.2475132793188095,
        -0.07385692000389099,
        -0.08485230803489685,
        0.40437841415405273
      ],
      [
        -0.06031133607029915,
        0.23715852200984955,
        0.3060774505138397,
        -0.16397260129451752,
        0.4208415746688843,
        0.21786101162433624,
        0.21592968702316284,
        -0.02639995515346527,
        0.24223841726779938
      ],
      [
        -0.1781991571187973,
        -0.06132620945572853,
        0.3010265827178955,
        0.20622886717319489,
        -0.028896786272525787,
        -0.32936105132102966,
        -0.0017647380009293556,
        -0.2425319254398346,
        0.2556924819946289
      ],
      [
        -0.23663024604320526,
        -0.020882591605186462,
        -0.025222791358828545,
        0.17844775319099426,
        0.6009883284568787,
        0.18360158801078796,
        0.3201328217983246,
        0.20182688534259796,
        0.40895941853523254
      ],
      [
        -0.20410321652889252,
        -0.09625251591205597,
        0.18816664814949036,
        0.015475946478545666,
        0.45242130756378174,
        0.07365827262401581,
        -0.09390469640493393,
        0.047481436282396317,
        0.1744067370891571
      ],
      [
        0.11856120824813843,
        0.3010975122451782,
        0.1974521428346634,
        0.28586822748184204,
        -0.012411560863256454,
        -0.31689682602882385,
        -0.26133760809898376,
        -0.23663663864135742,
        -0.32394856214523315
      ],
      [
        -0.1670825183391571,
        -0.3068559169769287,
        -0.3075384497642517,
        -0.1991848647594452,
        -0.3286113142967224,
        -0.2046041488647461,
        0.12710288166999817,
        0.2780176103115082,
        -0.0991542786359787
      ],
      [
        -0.14127188920974731,
        0.20176711678504944,
        -0.11720640957355499,
        -0.04544449597597122,
        0.5130373239517212,
        -0.12837545573711395,
        0.18879781663417816,
        0.22416914999485016,
        0.22187529504299164
      ],
      [
        0.04184490069746971,
        -0.18222439289093018,
        0.051730744540691376,
        0.14227117598056793,
        0.37311503291130066,
        0.2825203835964203,
        0.4326581358909607,
        -0.3259461522102356,
        0.16123555600643158
      ],
      [
        -0.3367816209793091,
        -0.16876782476902008,
        0.29284507036209106,
        -0.08095356076955795,
        0.28720059990882874,
        0.09249327331781387,
        -0.10734202712774277,
        0.059303510934114456,
        -2.4425530433654785
      ],
      [
        -0.30396050214767456,
        -0.13529729843139648,
        -0.5035837292671204,
        -0.5378677845001221,
        0.0064921933226287365,
        0.24743297696113586,
        0.4462001621723175,
        0.3753930628299713,
        -0.0380767323076725
      ],
      [
        -0.21807372570037842,
        0.29089775681495667,
        0.11790582537651062,
        0.0088559091091156,
        0.04511070251464844,
        -0.26789891719818115,
        -0.11129514873027802,
        0.3208726942539215,
        -0.08221074938774109
      ],
      [
        -0.016721367835998535,
        -0.2767770290374756,
        -0.18646904826164246,
        -0.006806522607803345,
        -0.20705315470695496,
        -0.0413365364074707,
        0.1356530487537384,
        -0.32605910301208496,
        0.09900403022766113
      ],
      [
        -0.22040271759033203,
        -0.16268369555473328,
        0.127969890832901,
        0.2650400698184967,
        -0.09110288321971893,
        -0.13685636222362518,
        -0.3014119565486908,
        -0.1718858927488327,
        -0.29187899827957153
      ],
      [
        -0.07629016041755676,
        0.06801846623420715,
        -0.3122919201850891,
        0.29103782773017883,
        0.20913031697273254,
        -0.3263152837753296,
        -0.15921100974082947,
        0.1087183952331543,
        -0.0684865415096283
      ],
      [
        -0.13392052054405212,
        -0.18543942272663116,
        0.284674733877182,
        -0.11868944019079208,
        0.5500167608261108,
        0.14345742762088776,
        0.19134455919265747,
        0.1498032808303833,
        0.05468826740980148
      ],
      [
        -0.18978111445903778,
        -0.053911417722702026,
        0.2703511416912079,
        -0.24732911586761475,
        0.07566013932228088,
        -0.32759714126586914,
        0.174767404794693,
        0.12315592169761658,
        0.014130741357803345
      ],
      [
        0.0945773795247078,
        0.0018626176752150059,
        0.22996379435062408,
        -0.17332316935062408,
        0.23397284746170044,
        0.28443244099617004,
        0.4742206633090973,
        0.0789460688829422,
        -0.1089339330792427
      ],
      [
        0.22778213024139404,
        -0.04837566986680031,
        -0.016245808452367783,
        -0.1790943145751953,
        0.24239487946033478,
        0.39155113697052,
        0.19160820543766022,
        -0.2729262709617615,
        0.25403642654418945
      ],
      [
        -0.12143450230360031,
        0.28974586725234985,
        -0.3038797974586487,
        -0.11986389011144638,
        -0.3364470303058624,
        -0.14586544036865234,
        0.09049344062805176,
        0.3062886893749237,
        0.041394948959350586
      ],
      [
        0.30426421761512756,
        0.08624354004859924,
        0.23821769654750824,
        0.37496665120124817,
        0.5283229947090149,
        -0.06670906394720078,
        0.44254985451698303,
        0.11378487199544907,
        -0.027486862614750862
      ],
      [
        -0.1725577414035797,
        -0.32135939598083496,
        0.15852420032024384,
        -0.1504337340593338,
        0.4755230247974396,
        0.2849264442920685,
        -0.14246733486652374,
        0.06866539269685745,
        0.09850479662418365
      ],
      [
        0.13634240627288818,
        0.1815672665834427,
        -0.3124602735042572,
        0.4108511805534363,
        0.5450400114059448,
        0.2672581374645233,
        -0.20497235655784607,
        -0.17207831144332886,
        0.015437169000506401
      ],
      [
        -0.13032594323158264,
        0.2091837078332901,
        0.1643718183040619,
        0.4027094542980194,
        0.16269531846046448,
        0.2609875798225403,
        0.2602192759513855,
        -0.3440302014350891,
        -0.18460021913051605
      ],
      [
        -0.21800298988819122,
        0.25805753469467163,
        -0.26264098286628723,
        -0.1713285595178604,
        0.4929101765155792,
        0.34331557154655457,
        0.42974260449409485,
        -0.32533693313598633,
        -0.07469779253005981
      ],
      [
        0.15832915902137756,
        0.3028147220611572,
        0.24678519368171692,
        0.17391717433929443,
        0.38339605927467346,
        0.46196407079696655,
        -0.09645241498947144,
        -0.1999252736568451,
        0.3624327778816223
      ],
      [
        -0.25425583124160767,
        -0.21450980007648468,
        0.21175308525562286,
        0.07433771342039108,
        0.07577662169933319,
        -0.1731829047203064,
        -0.0365135557949543,
        0.27438482642173767,
        -0.22349880635738373
      ],
      [
        0.0026207268238067627,
        0.15853318572044373,
        -0.2301187515258789,
        0.3237256109714508,
        -0.1665368527173996,
        -0.08004534244537354,
        -0.0901900976896286,
        -0.21721963584423065,
        -0.32708820700645447
      ],
      [
        0.16423243284225464,
        0.10323211550712585,
        -0.266435444355011,
        -0.10305310040712357,
        0.6285458207130432,
        0.28574398159980774,
        0.27354666590690613,
        -0.25462695956230164,
        -0.0006477177375927567
      ],
      [
        -0.07600812613964081,
        -0.08659534901380539,
        -0.25404688715934753,
        0.0018269671127200127,
        0.007488252595067024,
        -0.06783991307020187,
        0.020569538697600365,
        -0.1578068882226944,
        0.06111794710159302
      ],
      [
        0.10703432559967041,
        -0.156925231218338,
        -0.2756580114364624,
        0.3108557164669037,
        0.3754259943962097,
        -0.011195710860192776,
        0.45963650941848755,
        -0.20971380174160004,
        0.37408676743507385
      ],
      [
        0.1691094934940338,
        -0.27946937084198,
        0.21498045325279236,
        -0.3064909875392914,
        -0.1846715658903122,
        -0.05557164549827576,
        -0.22468218207359314,
        0.3256366550922394,
        -0.06685987114906311
      ],
      [
        -0.040162235498428345,
        0.04661744087934494,
        0.7058137059211731,
        0.13651634752750397,
        -0.30272409319877625,
        0.08952300250530243,
        0.18994326889514923,
        0.6142663359642029,
        -0.32557642459869385
      ],
      [
        -0.22784265875816345,
        0.06946933269500732,
        0.13262000679969788,
        0.23587290942668915,
        0.4584592282772064,
        0.055806711316108704,
        0.31838274002075195,
        0.128341406583786,
        0.0506901890039444
      ],
      [
        0.1980402171611786,
        0.12146027386188507,
        0.25719285011291504,
        -0.22624406218528748,
        -0.20143046975135803,
        -0.13297201693058014,
        -0.024418780580163002,
        0.1584160327911377,
        -0.22086088359355927
      ],
      [
        0.16688469052314758,
        -0.11946046352386475,
        0.20136979222297668,
        -0.015825748443603516,
        -0.2920289933681488,
        -0.18341529369354248,
        -0.241250678896904,
        0.16532084345817566,
        -0.2235160768032074
      ],
      [
        -0.027772754430770874,
        0.07191860675811768,
        -0.18279823660850525,
        0.09615668654441833,
        -0.32547447085380554,
        -0.23850283026695251,
        -0.3020411431789398,
        -0.10082578659057617,
        -0.12143246829509735
      ],
      [
        0.04773113131523132,
        -0.06163814663887024,
        0.15669402480125427,
        0.3055984675884247,
        0.11959704756736755,
        -0.13132250308990479,
        -0.31212854385375977,
        0.12073397636413574,
        -0.1651526391506195
      ],
      [
        0.174319326877594,
        0.22592322528362274,
        0.16884160041809082,
        0.4294150769710541,
        0.5852073431015015,
        0.21093320846557617,
        -0.12410537153482437,
        0.2491815686225891,
        -0.037486590445041656
      ],
      [
        -0.5700018405914307,
        0.04934520646929741,
        0.7810819149017334,
        0.08524996787309647,
        0.015157436020672321,
        -0.16775621473789215,
        0.02454974688589573,
        0.5497424602508545,
        -0.1262723207473755
      ],
      [
        -0.058121997863054276,
        -0.12765777111053467,
        -0.11039657145738602,
        0.2797326147556305,
        0.2687554359436035,
        0.3237617313861847,
        0.009486128576099873,
        0.04926410689949989,
        0.22535687685012817
      ],
      [
        0.005156167782843113,
        0.18286433815956116,
        0.23688265681266785,
        0.4205080568790436,
        0.5354213714599609,
        0.05532753840088844,
        -0.17488177120685577,
        0.013650719076395035,
        0.10784073173999786
      ],
      [
        -0.08694180846214294,
        -0.05581822991371155,
        0.015677601099014282,
        0.24320998787879944,
        0.10391375422477722,
        -0.11836478114128113,
        -0.13707499206066132,
        -0.0825437605381012,
        -0.1288343369960785
      ],
      [
        0.2972452938556671,
        0.1622273027896881,
        0.3205602169036865,
        0.10971899330615997,
        0.28330424427986145,
        0.21414689719676971,
        -0.21039128303527832,
        -0.05518338829278946,
        0.03823835402727127
      ],
      [
        -0.2235114872455597,
        -0.2706156075000763,
        0.3469081521034241,
        0.3991480767726898,
        0.42763176560401917,
        0.4575645923614502,
        -0.022725114598870277,
        -0.11567174643278122,
        0.24150164425373077
      ],
      [
        -0.05507552623748779,
        -0.06541159749031067,
        -0.2755205035209656,
        0.08955374360084534,
        -0.2014424055814743,
        0.01212206482887268,
        0.3249918520450592,
        -0.10260510444641113,
        -0.10506391525268555
      ],
      [
        0.17493025958538055,
        -0.14865407347679138,
        -0.05424610897898674,
        0.2849298417568207,
        -0.16317866742610931,
        -0.26496651768684387,
        -0.21153539419174194,
        -0.11341916769742966,
        -0.18466699123382568
      ],
      [
        -0.1729772537946701,
        0.1346481740474701,
        0.05664590001106262,
        -0.10668718814849854,
        -0.2589704692363739,
        -0.10495328903198242,
        -0.1406797170639038,
        -0.10847298800945282,
        -0.3007076680660248
      ],
      [
        0.01159528736025095,
        -0.22153016924858093,
        -0.20327894389629364,
        -0.17394742369651794,
        0.46578094363212585,
        -0.026557860895991325,
        0.024931760504841805,
        0.19655801355838776,
        0.3699605464935303
      ],
      [
        0.13616006076335907,
        -0.37183529138565063,
        -0.29318758845329285,
        -0.18011435866355896,
        0.2181781381368637,
        -0.02308715507388115,
        -0.30570125579833984,
        -0.05378346890211105,
        -0.3124704957008362
      ],
      [
        -0.3594364523887634,
        -0.09144051373004913,
        0.7080675959587097,
        0.29539060592651367,
        -0.09055110812187195,
        0.1286659836769104,
        0.05889589339494705,
        0.3544675409793854,
        0.06341089308261871
      ],
      [
        0.03114958107471466,
        -0.12504616379737854,
        0.3365621268749237,
        0.06511802226305008,
        0.15178066492080688,
        0.3520544469356537,
        0.4064094126224518,
        0.26393693685531616,
        0.24418337643146515
      ],
      [
        -0.22896625101566315,
        0.7463578581809998,
        0.380533903837204,
        -0.9114127159118652,
        -0.09288539737462997,
        -0.1343366652727127,
        -0.07267657667398453,
        0.36106932163238525,
        -0.20495548844337463
      ],
      [
        -0.02788570523262024,
        0.15003693103790283,
        -0.056023240089416504,
        -0.27992650866508484,
        0.2667119801044464,
        -0.16777150332927704,
        -0.03661951422691345,
        0.03144213557243347,
        -0.020032286643981934
      ],
      [
        -0.3135620057582855,
        0.15293332934379578,
        -0.15141050517559052,
        -0.17288653552532196,
        0.07963848114013672,
        -0.17395401000976562,
        -0.1540532112121582,
        -0.11231665313243866,
        -0.12522587180137634
      ],
      [
        0.10810621082782745,
        0.8629608750343323,
        -0.04745040833950043,
        -0.9722238779067993,
        -0.2168198525905609,
        0.09913665801286697,
        -0.11039022356271744,
        0.25399714708328247,
        -0.31674233078956604
      ],
      [
        0.09425243735313416,
        0.1774464100599289,
        0.17292290925979614,
        -0.3226105570793152,
        -0.1393778771162033,
        -0.29875996708869934,
        -0.22301837801933289,
        0.1736467033624649,
        -0.06197117641568184
      ],
      [
        0.14157044887542725,
        -0.1956687867641449,
        0.050653308629989624,
        -0.20161931216716766,
        0.16663065552711487,
        -0.14579300582408905,
        -0.08358637988567352,
        -0.2892104387283325,
        0.001101166009902954
      ],
      [
        0.276431679725647,
        0.18995393812656403,
        -0.1339150071144104,
        0.12053938210010529,
        0.23380835354328156,
        -0.13282965123653412,
        0.39233118295669556,
        -0.08742091804742813,
        0.21765568852424622
      ],
      [
        -0.22433897852897644,
        -0.14303342998027802,
        0.021772705018520355,
        0.1825302541255951,
        0.4010131359100342,
        0.0005336987669579685,
        0.5107167959213257,
        -0.0025532571598887444,
        -0.12393584847450256
      ],
      [
        -0.15590421855449677,
        0.3281402885913849,
        1.6063451766967773e-05,
        -0.045248061418533325,
        -0.13872060179710388,
        -0.08738180994987488,
        -0.2807428538799286,
        -0.2648944854736328,
        0.19509652256965637
      ],
      [
        0.16250164806842804,
        0.2748853266239166,
        -0.3056318461894989,
        0.22171083092689514,
        -0.03916170448064804,
        0.24324274063110352,
        0.2724343538284302,
        0.07888869196176529,
        0.3072326183319092
      ],
      [
        0.1795901358127594,
        0.031003516167402267,
        0.213103249669075,
        0.006493013817816973,
        0.4410341680049896,
        0.04737953841686249,
        0.14184609055519104,
        -0.35915493965148926,
        0.055121224373579025
      ],
      [
        0.3290329873561859,
        0.33513903617858887,
        -0.2909442186355591,
        -0.5780984163284302,
        -0.005548444576561451,
        0.23359398543834686,
        0.10379929095506668,
        0.4625520408153534,
        -0.2916899025440216
      ],
      [
        -0.38356053829193115,
        0.13964013755321503,
        0.24431006610393524,
        -0.15273351967334747,
        0.42546290159225464,
        0.4450374245643616,
        0.16008803248405457,
        -0.2609858214855194,
        0.42551717162132263
      ],
      [
        0.4952661395072937,
        0.35636159777641296,
        -0.2969655990600586,
        0.051327094435691833,
        -0.32693034410476685,
        0.32656893134117126,
        -0.03809508681297302,
        0.43781548738479614,
        0.1423734426498413
      ],
      [
        0.045140475034713745,
        -0.0020527970045804977,
        0.20915907621383667,
        -0.003457988379523158,
        -0.02251136489212513,
        0.024656591936945915,
        0.43342190980911255,
        -0.21038460731506348,
        0.27052733302116394
      ],
      [
        -0.1963566541671753,
        0.25776034593582153,
        0.23609119653701782,
        0.2529231011867523,
        0.11300262808799744,
        -0.1305878609418869,
        0.1384861320257187,
        -0.2820512354373932,
        0.41128119826316833
      ],
      [
        -0.418565958738327,
        0.13389435410499573,
        0.3589264452457428,
        0.2807241380214691,
        0.4029967784881592,
        -0.18206888437271118,
        0.45659831166267395,
        -0.15424844622612,
        -0.18098263442516327
      ],
      [
        0.6475746035575867,
        -0.7068967819213867,
        -0.7603074908256531,
        0.6864966750144958,
        -0.2647193968296051,
        -0.16239209473133087,
        0.042797502130270004,
        -0.06342322379350662,
        0.2223850041627884
      ],
      [
        0.23405715823173523,
        0.2564171850681305,
        -0.43783506751060486,
        -0.312546968460083,
        -0.3887915313243866,
        0.2046809196472168,
        0.103941410779953,
        -0.5428139567375183,
        0.49894770979881287
      ]
    ],
    "fc1.bias": [
      0.34636932611465454,
      0.2904864251613617,
      -0.1957121342420578,
      0.32153451442718506,
      0.5930343866348267,
      0.15799857676029205,
      -0.00624378165230155,
      0.24105384945869446,
      0.04754986986517906,
      0.44297632575035095,
      0.5262746214866638,
      0.2841697037220001,
      -0.25984495878219604,
      0.29188796877861023,
      -0.06997010111808777,
      0.09409604966640472,
      -0.0033343390095978975,
      0.20836393535137177,
      0.26326945424079895,
      -0.03987845778465271,
      0.2090669870376587,
      0.31506702303886414,
      0.60788494348526,
      0.49929192662239075,
      0.13791514933109283,
      0.032876837998628616,
      0.25806036591529846,
      -0.05083390325307846,
      0.33489108085632324,
      0.26435375213623047,
      -0.21401482820510864,
      -0.26851898431777954,
      0.040867120027542114,
      -0.13041675090789795,
      0.2614719271659851,
      0.18667422235012054,
      0.05188760161399841,
      0.4038350284099579,
      -0.11054730415344238,
      0.5436567068099976,
      0.14970941841602325,
      -0.2558327317237854,
      -0.3668348789215088,
      -0.2593476176261902,
      -0.2127261757850647,
      -0.12975876033306122,
      -0.02508983016014099,
      -0.11441970616579056,
      -0.16841618716716766,
      -0.04640683904290199,
      0.09370581060647964,
      0.2692355215549469,
      0.12001747637987137,
      -0.23866698145866394,
      0.4179925322532654,
      -0.0207512304186821,
      0.5283040404319763,
      0.06844045966863632,
      0.5988237261772156,
      -0.2604936957359314,
      0.5016019344329834,
      0.5760795474052429,
      -0.194862961769104,
      0.3063932955265045,
      0.5575399994850159,
      0.2949538826942444,
      0.215285524725914,
      -0.055642083287239075,
      -0.2907279431819916,
      0.0842600166797638,
      0.09937509894371033,
      -0.21785299479961395,
      0.4352583885192871,
      -0.2847408950328827,
      0.5698003172874451,
      0.617663562297821,
      0.07616370916366577,
      0.04053656384348869,
      0.4969382584095001,
      0.322297602891922,
      0.37817686796188354,
      0.41572800278663635,
      0.5273243188858032,
      -0.17519192397594452,
      -0.074981689453125,
      0.38999053835868835,
      0.010679281316697598,
      0.5647034049034119,
      -0.17507950961589813,
      -0.06130605936050415,
      0.3377853035926819,
      -0.1253572255373001,
      0.22723892331123352,
      0.0364605188369751,
      -0.3080766797065735,
      0.23249861598014832,
      -0.15692275762557983,
      0.28058940172195435,
      0.24042408168315887,
      -0.33064472675323486,
      0.15533804893493652,
      0.2412167489528656,
      -0.09829282760620117,
      0.2797395586967468,
      -0.07273304462432861,
      0.5407896041870117,
      0.025384685024619102,
      -0.31380391120910645,
      0.3598816692829132,
      0.22465530037879944,
      -0.2180335521697998,
      -0.21545831859111786,
      0.3112219274044037,
      0.2556602358818054,
      -0.1859646737575531,
      0.4709409773349762,
      0.283603698015213,
      -0.32864314317703247,
      0.1922050416469574,
      0.40358731150627136,
      -0.1272418051958084,
      0.4218951165676117,
      -0.38427263498306274,
      0.5226907134056091,
      0.5675672292709351,
      0.4731592833995819,
      0.022844666615128517,
      0.02620410919189453
    ],
    "fc2.weight": [
      [
        -0.06395319104194641,
        -0.022085897624492645,
        -0.008438222110271454,
        -0.049186889082193375,
        -0.06528539955615997,
        0.05945155769586563,
        0.05998433381319046,
        -0.08027325570583344,
        0.028126224875450134,
        0.03595656901597977,
        0.08396612852811813,
        0.051137395203113556,
        0.08125864714384079,
        -0.028937436640262604,
        0.06190600246191025,
        0.07189520448446274,
        -0.08346759527921677,
        -0.07094991952180862,
        0.017890281975269318,
        0.04826337844133377,
        -0.043912485241889954,
        0.009734608232975006,
        -0.00012831389904022217,
        0.022371768951416016,
        -0.047495439648628235,
        0.04985447973012924,
        0.05877908319234848,
        -0.061328984797000885,
        0.000856257975101471,
        0.0002452433109283447,
        0.028382889926433563,
        0.08234121650457382,
        0.025921069085597992,
        -0.020083770155906677,
        0.07938448339700699,
        -0.033634670078754425,
        -0.025665484368801117,
        0.006034746766090393,
        -0.06730850785970688,
        0.009618185460567474,
        -0.059969328343868256,
        0.009088143706321716,
        0.008468270301818848,
        0.012234777212142944,
        -0.0745375007390976,
        -0.08394986391067505,
        0.04066901654005051,
        0.07580148428678513,
        -0.07843337953090668,
        0.03273853659629822,
        -0.06506456434726715,
        0.005541183054447174,
        0.08223278075456619,
        0.06705310195684433,
        -0.06462423503398895,
        0.05467454344034195,
        0.04616675525903702,
        -0.0001355782151222229,
        0.08562415093183517,
        -0.03510565683245659,
        -0.020569369196891785,
        -0.04467272013425827,
        0.0127188041806221,
        0.023404061794281006,
        0.00704280287027359,
        -0.049730561673641205,
        -0.03978946805000305,
        0.030065514147281647,
        -0.07750123739242554,
        -0.013765119016170502,
        -0.0019579455256462097,
        -0.03581176698207855,
        0.03216611593961716,
        0.0056969597935676575,
        0.06205432862043381,
        -0.007849901914596558,
        -0.05578528344631195,
        0.06245093792676926,
        0.012343324720859528,
        -0.025314263999462128,
        -0.058257006108760834,
        0.02071724832057953,
        -0.08430060744285583,
        0.023279525339603424,
        0.043703146278858185,
        -0.07753430306911469,
        -0.057865411043167114,
        -0.06354466080665588,
        0.07429098337888718,
        0.07514076679944992,
        0.005533188581466675,
        0.08297949284315109,
        -0.02954857423901558,
        -0.0858093723654747,
        0.030873596668243408,
        0.0313132107257843,
        0.08665437251329422,
        -2.5585293769836426e-05,
        0.06774049252271652,
        0.05417885631322861,
        0.06397273391485214,
        -0.08771059662103653,
        0.07278408855199814,
        -0.07534690201282501,
        0.07924113422632217,
        -0.0036628693342208862,
        -0.07833126187324524,
        0.024580158293247223,
        -0.017991162836551666,
        -0.07938982546329498,
        -0.03204415366053581,
        0.009113296866416931,
        0.06884095817804337,
        -0.027173198759555817,
        0.052499838173389435,
        0.011068738996982574,
        0.002979382872581482,
        0.01691266894340515,
        -0.05800650641322136,
        -0.07346823811531067,
        -0.02777264267206192,
        -0.08236503601074219,
        -0.04121995344758034,
        0.004066377878189087,
        -0.058213382959365845,
        -0.03666313365101814,
        -0.015882186591625214,
        -0.010182633996009827
      ],
      [
        -0.06085933372378349,
        -0.007815327495336533,
        -0.012406229972839355,
        0.013214911334216595,
        -0.008075614459812641,
        -0.04413846507668495,
        -0.042490676045417786,
        -0.0010187402367591858,
        -0.055153027176856995,
        -0.005142321810126305,
        -0.01830139569938183,
        0.03429277986288071,
        0.02091848850250244,
        0.06614837795495987,
        -0.002913758158683777,
        -0.06531061232089996,
        0.03951037675142288,
        -0.07180022448301315,
        -0.012149184942245483,
        -0.028620384633541107,
        -0.04560280591249466,
        -0.04476633295416832,
        0.06915909051895142,
        0.03853500261902809,
        0.024495713412761688,
        0.0709330216050148,
        -0.08009946346282959,
        0.014263011515140533,
        0.04452114924788475,
        0.05871548503637314,
        -0.08240637183189392,
        0.031456492841243744,
        -0.05035359784960747,
        -0.003453671932220459,
        -0.03050934709608555,
        -0.08586643636226654,
        -0.08431492000818253,
        -0.0581505112349987,
        0.040108032524585724,
        0.028364088386297226,
        -0.07687697559595108,
        -0.03319356217980385,
        -0.010609031654894352,
        -0.07641901820898056,
        0.04980281740427017,
        0.08005618304014206,
        0.015632517635822296,
        -0.0777154266834259,
        0.020610958337783813,
        0.020024511963129044,
        0.06998970359563828,
        -0.04702877998352051,
        -0.09125405550003052,
        0.03883347660303116,
        -0.006565311457961798,
        -0.04085904359817505,
        -0.04910040646791458,
        -0.045574430376291275,
        0.059482306241989136,
        -0.015250444412231445,
        0.051677949726581573,
        0.06683830916881561,
        0.011196687817573547,
        0.018828272819519043,
        -0.01808481104671955,
        0.048640184104442596,
        -0.07964566349983215,
        0.035150542855262756,
        -0.014401011168956757,
        0.04035956412553787,
        -0.00039368122816085815,
        -0.032727207988500595,
        -0.021605899557471275,
        0.047729067504405975,
        -0.07345472276210785,
        -0.0679369866847992,
        -0.019798673689365387,
        -0.04412765055894852,
        0.022669324651360512,
        0.04741855710744858,
        -0.021528977900743484,
        0.07151380181312561,
        -0.048998888581991196,
        -0.04959994927048683,
        -0.03957093879580498,
        -0.07296283543109894,
        -0.061954379081726074,
        -0.09082269668579102,
        -0.07833675295114517,
        0.011027057655155659,
        0.04183864966034889,
        0.08298315852880478,
        0.07528895884752274,
        -0.005090609192848206,
        0.01715146005153656,
        -0.06495139002799988,
        0.022104473784565926,
        -0.0968141183257103,
        0.029625097289681435,
        0.016211792826652527,
        0.015097447670996189,
        0.020296886563301086,
        -0.04057951271533966,
        0.0758466050028801,
        0.04218355566263199,
        0.046002235263586044,
        0.011674202978610992,
        0.05550669878721237,
        0.04741762951016426,
        0.028009165078401566,
        0.0673314705491066,
        -0.016031689941883087,
        0.046081095933914185,
        0.02036459743976593,
        0.053182922303676605,
        0.07402382045984268,
        0.02001439779996872,
        -0.03280683234333992,
        -0.020861709490418434,
        0.012821071781218052,
        0.002855571685358882,
        -0.03621238097548485,
        0.057235389947891235,
        0.041040148586034775,
        -0.06696803867816925,
        -0.01926056668162346,
        -0.008484728634357452,
        -0.0553957000374794
      ],
      [
        0.012891881167888641,
        -0.027134593576192856,
        -0.04563149809837341,
        -0.028421010822057724,
        -0.031514737755060196,
        0.08455582708120346,
        0.03390329331159592,
        0.08698413521051407,
        0.024235688149929047,
        0.020013883709907532,
        0.036335885524749756,
        0.01517031341791153,
        -0.06936465203762054,
        -0.05226876214146614,
        -0.02141460031270981,
        0.0013287663459777832,
        0.03329716622829437,
        0.03403378278017044,
        0.07011965662240982,
        0.01799345761537552,
        -0.030166342854499817,
        -0.06647036224603653,
        -0.06473656743764877,
        -0.052797671407461166,
        0.026658236980438232,
        0.04775375872850418,
        0.07733208686113358,
        -0.02795827016234398,
        -0.0069723352789878845,
        -0.026248108595609665,
        -0.0003229677677154541,
        0.028372786939144135,
        -0.0019420236349105835,
        0.004091918468475342,
        0.011197671294212341,
        0.03291743993759155,
        -0.026817142963409424,
        -0.052705761045217514,
        0.020852982997894287,
        -0.010465674102306366,
        -0.040042392909526825,
        0.037119828164577484,
        0.0008016005158424377,
        -0.012857377529144287,
        -0.04278736561536789,
        -0.011628895998001099,
        -0.07515882700681686,
        0.020107492804527283,
        0.0013264119625091553,
        0.053637273609638214,
        0.0057072713971138,
        0.007066845893859863,
        0.024078138172626495,
        0.06725800782442093,
        -0.04176859185099602,
        0.052768297493457794,
        0.021616391837596893,
        -0.058965347707271576,
        0.030775658786296844,
        -0.05300945043563843,
        -0.027822956442832947,
        -0.042131971567869186,
        -0.060131847858428955,
        0.06961213797330856,
        -0.07900334894657135,
        0.044195495545864105,
        -0.07955056428909302,
        -0.010757394134998322,
        0.0052716732025146484,
        0.06283620744943619,
        -0.03198717162013054,
        0.025440596044063568,
        0.01369187980890274,
        0.052006371319293976,
        0.005254827439785004,
        0.03309653699398041,
        -0.053394585847854614,
        -0.06142203509807587,
        0.07876088470220566,
        -0.06440567225217819,
        -0.015047207474708557,
        -0.010684393346309662,
        0.08643320947885513,
        -0.01910191774368286,
        -0.06729043275117874,
        -0.02240634709596634,
        0.045592568814754486,
        0.035027436912059784,
        0.07312298566102982,
        -0.018094591796398163,
        0.0416349396109581,
        -0.08317697048187256,
        0.034200966358184814,
        0.04061124473810196,
        0.05701816827058792,
        -0.05068561062216759,
        -0.023597776889801025,
        0.021383769810199738,
        -0.06281005591154099,
        -0.07031124830245972,
        -0.0850333720445633,
        0.00493408739566803,
        0.05488809198141098,
        0.022703424096107483,
        0.005388587713241577,
        0.03079678863286972,
        -0.055543601512908936,
        0.009318426251411438,
        -0.021957747638225555,
        -0.043764930218458176,
        0.07622373849153519,
        -0.06838187575340271,
        0.01295316219329834,
        -0.0776679515838623,
        -0.002998724579811096,
        -0.039276424795389175,
        0.02909279614686966,
        -0.049633413553237915,
        0.056572042405605316,
        -0.07172422111034393,
        0.0530891939997673,
        -0.06639550626277924,
        0.047339506447315216,
        -0.037217363715171814,
        -0.00020591169595718384,
        -0.01613117754459381,
        0.057366691529750824,
        0.028967298567295074
      ],
      [
        -0.09023960679769516,
        -0.004222056362777948,
        -0.06097579374909401,
        0.06607571989297867,
        0.002170476596802473,
        -0.022731788456439972,
        -0.05743514001369476,
        0.030593767762184143,
        -0.05293552577495575,
        0.02962532453238964,
        0.0358835831284523,
        0.05425306409597397,
        0.023090384900569916,
        -0.07737240195274353,
        0.0635792538523674,
        -0.02742013707756996,
        -0.026130761951208115,
        -0.021845495328307152,
        0.06462381035089493,
        0.06796415895223618,
        0.0012976248981431127,
        0.02982504293322563,
        -0.09472795575857162,
        0.00020879507064819336,
        -0.078195720911026,
        0.01773783564567566,
        -0.06297222524881363,
        -0.03150201961398125,
        0.04944336786866188,
        0.07215896248817444,
        -0.06541291624307632,
        -0.04905649647116661,
        0.010946549475193024,
        0.034745924174785614,
        -0.026743439957499504,
        -0.039953574538230896,
        -0.05805732309818268,
        0.03773083537817001,
        0.08659952133893967,
        -0.05513838678598404,
        0.04168958216905594,
        0.043168388307094574,
        0.05869520828127861,
        -0.010063350200653076,
        0.002784043550491333,
        0.06493882089853287,
        0.05587150901556015,
        0.07495158910751343,
        -0.025329455733299255,
        0.022623080760240555,
        0.06171946972608566,
        -0.05999942123889923,
        0.005207334645092487,
        -0.01977713406085968,
        0.04446633160114288,
        -0.05203758925199509,
        -0.00614916393533349,
        0.05288369208574295,
        -0.09332574903964996,
        -0.07463177293539047,
        -0.05762261524796486,
        0.04434513673186302,
        0.059266842901706696,
        -0.060366593301296234,
        0.004503933247178793,
        -0.059185490012168884,
        -0.041025690734386444,
        0.07622765749692917,
        0.04269237071275711,
        -0.024172700941562653,
        0.0130109041929245,
        0.017125852406024933,
        0.008353316225111485,
        -0.030253451317548752,
        -0.06440231949090958,
        0.04616768658161163,
        0.011876970529556274,
        0.02464311197400093,
        -0.045820847153663635,
        0.030462229624390602,
        0.051975905895233154,
        0.04140544682741165,
        0.01168053224682808,
        0.08696378022432327,
        -0.00019330531358718872,
        0.006466506980359554,
        0.08398040384054184,
        0.07355427742004395,
        -0.03731933608651161,
        0.06727013736963272,
        0.020269867032766342,
        -0.009893983602523804,
        0.07717593759298325,
        -0.0457877442240715,
        0.057430200278759,
        0.07523610442876816,
        -0.07330937683582306,
        -0.06450503319501877,
        -0.09993613511323929,
        -0.015906579792499542,
        -0.09262581914663315,
        -0.04195280745625496,
        0.02683427929878235,
        0.06247975677251816,
        0.049235425889492035,
        0.03671730309724808,
        0.03666912764310837,
        -0.05482139438390732,
        -0.08253157883882523,
        -0.008685573004186153,
        0.0839320495724678,
        0.004976771771907806,
        -0.0199522003531456,
        -0.0599924772977829,
        -0.043826326727867126,
        -0.08048637956380844,
        0.07076974958181381,
        -0.014401085674762726,
        -0.0904342532157898,
        -0.002868262119591236,
        -0.005934504792094231,
        -0.023270316421985626,
        0.01929521933197975,
        0.035184890031814575,
        -0.09546653926372528,
        -0.08006246387958527,
        -0.004246167838573456,
        -0.0819481685757637
      ],
      [
        -0.09525196254253387,
        0.06307835131883621,
        -0.006722770631313324,
        -0.058659106492996216,
        -0.04528386518359184,
        -0.0690067708492279,
        0.05403453856706619,
        -0.019166022539138794,
        -0.04969528317451477,
        -0.08199270069599152,
        0.03670799732208252,
        -0.012218043208122253,
        -0.009285837411880493,
        -0.02303694188594818,
        -0.042667075991630554,
        0.01572342962026596,
        0.06800337880849838,
        -0.06619054824113846,
        0.004234924912452698,
        -0.06722050905227661,
        -0.056407347321510315,
        0.06262306869029999,
        -0.01403658278286457,
        0.07018708437681198,
        -0.015486009418964386,
        -0.06312514841556549,
        -0.05281100049614906,
        0.07833988219499588,
        -0.0829324945807457,
        0.03143111243844032,
        0.0071010407991707325,
        0.026084043085575104,
        0.04987224191427231,
        -0.023124419152736664,
        0.03972865268588066,
        -0.08538056164979935,
        -0.03109867498278618,
        0.0497424341738224,
        0.02623187005519867,
        -0.026735574007034302,
        -0.03560163453221321,
        -0.05397120863199234,
        0.03879542276263237,
        -0.002810761332511902,
        -0.002990521490573883,
        0.020903266966342926,
        0.06522602587938309,
        -0.045094262808561325,
        -0.030440717935562134,
        0.04495082423090935,
        0.04991929978132248,
        -0.04348145052790642,
        -0.10239890962839127,
        0.01639704406261444,
        0.03151841089129448,
        0.006361532025039196,
        0.04773419722914696,
        -0.08507145941257477,
        0.029607873409986496,
        -0.05494920536875725,
        0.034779854118824005,
        0.05077507346868515,
        0.027994006872177124,
        0.07151276618242264,
        -0.07322544604539871,
        -0.09401603788137436,
        -0.08498585224151611,
        0.04053129255771637,
        0.030963316559791565,
        -0.06472384929656982,
        0.0428047850728035,
        0.08064661175012589,
        -0.10212164372205734,
        0.06411876529455185,
        -0.0014081140980124474,
        -0.006742260418832302,
        0.079531230032444,
        0.06508027017116547,
        0.022284165024757385,
        0.0548781119287014,
        0.021813195198774338,
        -0.0005622478784061968,
        -0.0926593467593193,
        0.016509413719177246,
        -0.06288355588912964,
        0.012247471138834953,
        0.015594705939292908,
        -0.012979060411453247,
        -0.06043346971273422,
        -0.05358077213168144,
        0.05036752298474312,
        0.04304680973291397,
        0.046601854264736176,
        -0.026337679475545883,
        -0.015220142900943756,
        -0.037615127861499786,
        0.04583984985947609,
        -0.05311663821339607,
        0.04071422293782234,
        0.06094320863485336,
        -0.09578794986009598,
        -0.014422873966395855,
        -0.016833871603012085,
        -0.04886305332183838,
        0.03815879672765732,
        -0.025700250640511513,
        0.07738471776247025,
        -0.055322617292404175,
        0.02610320784151554,
        -0.09042417258024216,
        -0.04430215433239937,
        0.006029233336448669,
        0.05487514287233353,
        0.046555839478969574,
        -0.07257438451051712,
        -0.005173044744879007,
        -0.0670594871044159,
        0.003829844295978546,
        -0.08859806507825851,
        -0.04088883101940155,
        0.04566029831767082,
        -0.09606435149908066,
        -0.08427145332098007,
        0.00113853404764086,
        -0.002843649359419942,
        -0.031125398352742195,
        0.07718177884817123,
        -0.06817488372325897
      ],
      [
        -0.05365881696343422,
        -0.06606817245483398,
        -0.01645106077194214,
        -0.02255713939666748,
        0.05469001084566116,
        -0.004962921142578125,
        0.02822713553905487,
        -0.03673036769032478,
        0.07169995456933975,
        0.0745130404829979,
        -0.07915785908699036,
        -0.022715769708156586,
        -0.07499728351831436,
        0.03754974156618118,
        -0.07722341269254684,
        -0.04179105535149574,
        0.0883151963353157,
        -0.08440373092889786,
        0.06521331518888474,
        0.007466964423656464,
        0.07067839056253433,
        -0.04485614225268364,
        0.05805598944425583,
        0.010664388537406921,
        0.006798163056373596,
        0.06032789498567581,
        -0.08401552587747574,
        -0.07119250297546387,
        0.08536223322153091,
        -0.05307689681649208,
        -0.0637110024690628,
        -0.004321716725826263,
        -0.028293326497077942,
        -0.012092575430870056,
        -0.059218913316726685,
        0.03189218044281006,
        -0.07605654746294022,
        0.007158830761909485,
        0.0515780970454216,
        0.016982585191726685,
        0.011744149029254913,
        0.012928038835525513,
        -0.02589341253042221,
        -0.016837820410728455,
        -0.037272777408361435,
        -0.0597088485956192,
        -0.046797752380371094,
        0.08737722784280777,
        -0.014792360365390778,
        0.030962087213993073,
        0.061125315725803375,
        -0.006904706358909607,
        -0.047550641000270844,
        -0.05988655239343643,
        -0.032562561333179474,
        0.03154902160167694,
        -0.07443699985742569,
        -0.01079193502664566,
        0.03362174332141876,
        0.07211209088563919,
        0.026598751544952393,
        0.017480269074440002,
        0.06050983816385269,
        0.0408431813120842,
        0.02990298718214035,
        -0.027404502034187317,
        -0.0708785131573677,
        -0.019092068076133728,
        -0.0160304456949234,
        0.006490990519523621,
        -0.009720973670482635,
        0.0357343927025795,
        0.058738477528095245,
        -0.035834431648254395,
        -0.08386822044849396,
        -0.04534849151968956,
        -0.04229173809289932,
        0.05010206252336502,
        -0.0570143386721611,
        -0.008313551545143127,
        -0.018732942640781403,
        -0.05364574119448662,
        0.04006510227918625,
        -0.03681865334510803,
        -0.00457252562046051,
        -0.06214449554681778,
        -0.008914828300476074,
        0.012558728456497192,
        -0.003596767783164978,
        -0.03302610293030739,
        0.02625872939825058,
        -0.022901207208633423,
        -0.049002401530742645,
        -0.0651804506778717,
        -0.018723264336586,
        -0.08349856734275818,
        0.07336408644914627,
        -0.042225565761327744,
        -0.03662974014878273,
        0.008170537650585175,
        0.022913195192813873,
        -0.008334346115589142,
        0.06063642352819443,
        -0.05152595415711403,
        0.03167668730020523,
        -0.00019934773445129395,
        -0.0719013661146164,
        -0.034232355654239655,
        0.022493697702884674,
        0.016885869204998016,
        0.06427029520273209,
        0.059131182730197906,
        -0.048209019005298615,
        -0.0377444289624691,
        -0.018741987645626068,
        -0.06332322955131531,
        -0.023863956332206726,
        -0.0723293200135231,
        0.033617809414863586,
        0.06254000216722488,
        0.006998270750045776,
        -0.06327550113201141,
        -0.06693720072507858,
        -0.03440950810909271,
        0.025708049535751343,
        0.0021559670567512512,
        0.016070939600467682,
        0.08330436795949936
      ],
      [
        0.017720356583595276,
        -0.003304301528260112,
        -0.017882898449897766,
        0.0206026341766119,
        0.009309854358434677,
        -0.07955855131149292,
        -0.07903861254453659,
        -0.006353010423481464,
        0.03353828191757202,
        0.019579309970140457,
        -0.0761972963809967,
        -0.08769134432077408,
        -0.0046042874455451965,
        -0.010104313492774963,
        0.01576012186706066,
        -0.024307362735271454,
        0.049826011061668396,
        -0.017750175669789314,
        0.06454531103372574,
        -0.061546072363853455,
        0.01252142433077097,
        -0.0122092105448246,
        -0.06680774688720703,
        0.031267598271369934,
        -0.08697585016489029,
        0.04875979200005531,
        0.00712304562330246,
        0.008534125983715057,
        0.015276605263352394,
        -0.005387492477893829,
        0.020568491891026497,
        0.05623392015695572,
        -0.06898343563079834,
        0.058474235236644745,
        -0.034479379653930664,
        -0.04380134120583534,
        0.017790943384170532,
        0.06913309544324875,
        -0.04804924875497818,
        -0.08229619264602661,
        0.05485444515943527,
        -0.041513171046972275,
        0.017080141231417656,
        -0.013021908700466156,
        0.024329155683517456,
        0.06745047122240067,
        -0.04479512572288513,
        -0.042891647666692734,
        0.04336515814065933,
        -0.02318549156188965,
        -0.009727858006954193,
        -0.07763927429914474,
        0.05149354040622711,
        -0.003347344696521759,
        -0.03976720944046974,
        -0.03433544933795929,
        -0.0423726923763752,
        0.02875838242471218,
        -0.025279851630330086,
        0.07559048384428024,
        -0.02844049409031868,
        -0.029949596151709557,
        0.04989094287157059,
        -0.0022870972752571106,
        -0.04161912947893143,
        0.005091626662760973,
        0.0697057917714119,
        0.022057265043258667,
        0.061546407639980316,
        0.05727902799844742,
        0.02499602735042572,
        0.030731618404388428,
        0.006517051253467798,
        0.009168237447738647,
        0.052069105207920074,
        0.05813908576965332,
        0.03146524727344513,
        -0.02857222408056259,
        0.1117430180311203,
        -0.09215013682842255,
        0.03847912326455116,
        0.02094932831823826,
        0.03368847072124481,
        -0.006791375577449799,
        -0.06594636291265488,
        0.038792356848716736,
        -0.038648299872875214,
        -0.0010479363845661283,
        0.05007598549127579,
        -0.08260117471218109,
        -0.017149977385997772,
        -0.0425276905298233,
        0.06273410469293594,
        -0.05627698823809624,
        0.05366673320531845,
        0.03190070763230324,
        0.03901781886816025,
        0.06266380846500397,
        -0.00922261830419302,
        -0.08011353015899658,
        0.04051186144351959,
        -0.014202874153852463,
        0.001754067838191986,
        -0.08419778943061829,
        -0.01986583322286606,
        -0.0313715785741806,
        0.08656851202249527,
        0.06234179809689522,
        0.042393479496240616,
        0.04898061975836754,
        -0.05478962883353233,
        -0.03796010464429855,
        -0.03459080308675766,
        -0.035433318465948105,
        0.06880433112382889,
        0.005506813060492277,
        0.07083035260438919,
        -0.004134714603424072,
        -0.10201167315244675,
        -0.05027860030531883,
        0.06211886554956436,
        0.030661333352327347,
        0.017989594489336014,
        -0.051448170095682144,
        -0.10588517040014267,
        -0.07095649093389511,
        0.04337778314948082,
        -0.035652123391628265
      ],
      [
        0.03440685570240021,
        0.016230864450335503,
        -0.03394884243607521,
        0.045607928186655045,
        -0.03626253828406334,
        -0.0029364973306655884,
        -0.04167352244257927,
        -0.09177695214748383,
        0.014251574873924255,
        0.017358144745230675,
        -0.0515434592962265,
        0.05422154814004898,
        -0.07928925007581711,
        -0.08520429581403732,
        -0.060833580791950226,
        -0.03054744377732277,
        -0.015782997012138367,
        -0.025165816769003868,
        0.04033941775560379,
        -0.07757185399532318,
        0.005188579671084881,
        -0.006261392962187529,
        0.015549923293292522,
        0.07981938123703003,
        0.054398469626903534,
        -0.0567769892513752,
        -0.07243005186319351,
        -0.02139890193939209,
        -0.05255652591586113,
        0.03310704231262207,
        -0.006918455008417368,
        0.07109282165765762,
        0.03471948951482773,
        -0.016251996159553528,
        -0.004871691111475229,
        0.013270615600049496,
        -0.010967865586280823,
        0.07132361084222794,
        -0.06911087036132812,
        0.03520505502820015,
        -0.05634261295199394,
        -0.07743538916110992,
        -0.02437676303088665,
        0.04307208210229874,
        0.06245184689760208,
        0.02218039333820343,
        -0.0076393187046051025,
        -0.004954993724822998,
        -0.03583098575472832,
        -0.007931739091873169,
        -0.00610709935426712,
        0.075215183198452,
        0.04391857609152794,
        -0.07073047012090683,
        -0.0074750203639268875,
        -0.062303222715854645,
        -0.02195145934820175,
        -0.07832419872283936,
        0.015089506283402443,
        -0.06373489648103714,
        0.07937994599342346,
        0.058895185589790344,
        -0.060842905193567276,
        -0.08321443945169449,
        -0.00448312284424901,
        -0.032516058534383774,
        0.025947876274585724,
        -0.05983131751418114,
        0.036180995404720306,
        -0.07634537667036057,
        -0.046648722141981125,
        -0.0464659109711647,
        0.0349576398730278,
        -0.0023141130805015564,
        -0.0927034243941307,
        -0.05832946300506592,
        -0.04090408608317375,
        -0.08976514637470245,
        0.0029142003040760756,
        0.02368311770260334,
        -0.01621728390455246,
        -0.03531205281615257,
        -0.008420019410550594,
        -0.07020524889230728,
        -0.053819797933101654,
        -0.009834256954491138,
        0.0785221979022026,
        -0.03505077585577965,
        0.04381052404642105,
        -0.03478526696562767,
        -0.031364619731903076,
        -0.08414079993963242,
        0.07322842627763748,
        0.08606616407632828,
        -0.0018564388155937195,
        0.048325177282094955,
        0.06411460787057877,
        0.036060210317373276,
        0.03767259418964386,
        -0.08414487540721893,
        -0.09089202433824539,
        -0.07571860402822495,
        0.02764660120010376,
        -0.07645385712385178,
        -0.06747077405452728,
        -0.05129192769527435,
        -0.08146624267101288,
        -0.005757424049079418,
        0.004908994771540165,
        -0.05956553295254707,
        0.05787362903356552,
        -0.03355618193745613,
        -0.024883709847927094,
        0.06734088808298111,
        0.07588595896959305,
        -0.0179373137652874,
        -0.06345205754041672,
        -0.04434169828891754,
        0.0034107868559658527,
        0.04402722418308258,
        0.044003672897815704,
        -0.04699930548667908,
        -0.08953744173049927,
        -0.08532595634460449,
        -0.0361100398004055,
        -0.002964880783110857,
        -0.03970188647508621,
        -0.0698891282081604
      ],
      [
        0.10583772510290146,
        0.11627420783042908,
        -0.06787554919719696,
        0.17443180084228516,
        0.12495458871126175,
        -0.3442082703113556,
        0.18907463550567627,
        -0.0701770931482315,
        -0.15746377408504486,
        0.3264177441596985,
        0.2121410071849823,
        -0.07129177451133728,
        -0.0544571727514267,
        -0.06004686653614044,
        0.20829135179519653,
        0.042245227843523026,
        0.26606518030166626,
        0.1498861163854599,
        0.3233940303325653,
        0.071844182908535,
        0.21358244121074677,
        0.24204160273075104,
        0.25258225202560425,
        0.41494229435920715,
        -0.04062706232070923,
        -0.5097464919090271,
        -0.017755933105945587,
        -0.042457081377506256,
        0.14113262295722961,
        0.9460784792900085,
        0.39855363965034485,
        -0.04875266179442406,
        0.023826517164707184,
        -0.010250777006149292,
        0.2174014300107956,
        0.09922576695680618,
        0.07659579068422318,
        0.29580608010292053,
        -0.0559212788939476,
        0.12024901807308197,
        -0.8308224081993103,
        0.02758198231458664,
        -0.003303476609289646,
        -0.2879781723022461,
        -0.020860597491264343,
        -0.031371425837278366,
        -0.04662361368536949,
        -0.6532617211341858,
        0.02482316642999649,
        0.035753391683101654,
        0.8927708864212036,
        0.010260079056024551,
        0.15427635610103607,
        0.03844810277223587,
        0.16206593811511993,
        -0.17907260358333588,
        0.16610419750213623,
        -1.0708820819854736,
        0.17792631685733795,
        -0.04165368899703026,
        0.27025890350341797,
        0.3918360471725464,
        -0.005092895124107599,
        0.0790017768740654,
        0.1637457013130188,
        0.2681361436843872,
        -0.2821791470050812,
        0.3980650007724762,
        -0.07093247771263123,
        -0.028522595763206482,
        -0.02363745868206024,
        0.0014600008726119995,
        0.154838427901268,
        0.016380615532398224,
        0.12171725928783417,
        0.15285687148571014,
        -0.03131110966205597,
        0.07807496935129166,
        0.3492361605167389,
        0.15644830465316772,
        0.22496335208415985,
        0.3136128783226013,
        0.23047901690006256,
        -0.03728759288787842,
        0.03711613267660141,
        0.15377548336982727,
        -0.0915762335062027,
        0.18491530418395996,
        -0.05070367828011513,
        -0.6239773631095886,
        0.11736128479242325,
        -0.04907583072781563,
        0.07263185828924179,
        0.04929489642381668,
        -0.034988269209861755,
        0.07985971868038177,
        -0.3989027738571167,
        0.12843169271945953,
        0.13221870362758636,
        0.053085096180438995,
        0.11637922376394272,
        0.19506961107254028,
        0.06084931641817093,
        -0.07094284147024155,
        -0.07200892269611359,
        0.2714376449584961,
        -0.06285998970270157,
        -0.8337900638580322,
        0.1994241625070572,
        -0.8138735294342041,
        -0.061678446829319,
        0.033269383013248444,
        -1.210952877998352,
        0.0933312252163887,
        -0.04174194484949112,
        0.15718236565589905,
        0.5089825391769409,
        -0.05982726067304611,
        0.05745221674442291,
        0.23601655662059784,
        -0.14967948198318481,
        0.2908187210559845,
        -0.5848594903945923,
        0.13355422019958496,
        0.20560811460018158,
        0.3442336618900299,
        -2.299459934234619,
        -0.6600362062454224
      ],
      [
        0.02187199331820011,
        0.2736658453941345,
        -0.05165031924843788,
        0.3458010256290436,
        0.16612152755260468,
        -0.45363155007362366,
        0.18594631552696228,
        0.013233858160674572,
        -0.09919991344213486,
        0.3290520906448364,
        0.21941685676574707,
        -0.08602079749107361,
        0.031414858996868134,
        -0.05212490260601044,
        0.4048178195953369,
        0.28002363443374634,
        0.26857995986938477,
        0.19246424734592438,
        0.10788367688655853,
        0.07375853508710861,
        0.21118497848510742,
        0.26225194334983826,
        0.2487523853778839,
        0.35977551341056824,
        0.08820255845785141,
        -0.43455320596694946,
        0.0511777326464653,
        -0.0976608544588089,
        0.30071789026260376,
        0.7386385202407837,
        0.49423447251319885,
        0.07676965743303299,
        0.009688340127468109,
        -0.036780014634132385,
        0.3370164930820465,
        0.030051516368985176,
        0.057754240930080414,
        0.21128667891025543,
        -0.027799271047115326,
        0.08827190846204758,
        -0.5156275033950806,
        0.03753138333559036,
        -0.09796872735023499,
        -0.3996169865131378,
        0.07388310879468918,
        0.047183506190776825,
        -0.0009665414690971375,
        -0.6478284597396851,
        -0.023417294025421143,
        -0.15701590478420258,
        0.8707048892974854,
        -0.02430003695189953,
        0.06007712706923485,
        -0.06265489012002945,
        0.11827003210783005,
        -0.18771252036094666,
        0.20966890454292297,
        -0.14195899665355682,
        0.15554717183113098,
        0.05895586684346199,
        0.2283332496881485,
        0.3004111051559448,
        -0.054253362119197845,
        -0.012370027601718903,
        0.25700142979621887,
        0.23007023334503174,
        -0.18556761741638184,
        0.36680448055267334,
        0.0731053575873375,
        -0.035902224481105804,
        -0.040707532316446304,
        -0.032641585916280746,
        0.17618630826473236,
        -0.05802164971828461,
        0.08660545200109482,
        0.187043234705925,
        0.015195610001683235,
        0.05787399783730507,
        0.37799134850502014,
        0.2930704653263092,
        0.16243694722652435,
        0.30206799507141113,
        0.22738458216190338,
        -0.028791334480047226,
        -0.011050589382648468,
        0.2648531198501587,
        0.06312046945095062,
        0.18213912844657898,
        0.06404825299978256,
        -0.5487200021743774,
        0.14785867929458618,
        0.07159698754549026,
        -0.00836857408285141,
        0.08732084184885025,
        0.006427355110645294,
        0.10774441063404083,
        0.10260052978992462,
        0.28482693433761597,
        0.17375105619430542,
        -0.05358148738741875,
        0.07612518221139908,
        0.21868322789669037,
        0.06440692394971848,
        -0.01324267778545618,
        0.018607646226882935,
        0.32047855854034424,
        0.009972733445465565,
        -0.8070612549781799,
        0.2107991725206375,
        -0.2957795560359955,
        -0.05456533282995224,
        0.06683068722486496,
        -0.7138330340385437,
        -0.005630245432257652,
        -0.06321210414171219,
        0.08242001384496689,
        0.432806134223938,
        0.050448618829250336,
        0.0976317897439003,
        0.16171923279762268,
        0.18297423422336578,
        0.20781587064266205,
        -0.4689790606498718,
        0.06302765756845474,
        0.17470945417881012,
        0.38719800114631653,
        -1.5868353843688965,
        -0.3254798352718353
      ],
      [
        -0.044570911675691605,
        0.061782173812389374,
        0.0585189089179039,
        0.014184609055519104,
        -0.04064767435193062,
        0.018740586936473846,
        0.00023634731769561768,
        0.08075185865163803,
        0.013098515570163727,
        0.006817333400249481,
        0.006042182445526123,
        0.047023408114910126,
        -0.0010921061038970947,
        0.075761578977108,
        0.046049438416957855,
        -0.06678862124681473,
        -1.0132789611816406e-06,
        -0.07502463459968567,
        -0.06786532700061798,
        0.017173252999782562,
        0.01986251026391983,
        -0.007735066115856171,
        0.0840098038315773,
        -0.04748326167464256,
        -0.037042293697595596,
        -0.014155007898807526,
        0.0005359053611755371,
        -0.007486701011657715,
        0.07958387583494186,
        -0.037330497056245804,
        -0.046233732253313065,
        0.007596977055072784,
        0.06638691574335098,
        0.020979471504688263,
        0.047617681324481964,
        0.017110683023929596,
        0.07533236593008041,
        0.053088121116161346,
        0.06324794143438339,
        -0.01190502941608429,
        -0.0731763169169426,
        -0.04192827269434929,
        0.03011111170053482,
        0.06200855225324631,
        -0.03453371673822403,
        0.07313420623540878,
        0.012703724205493927,
        0.00035108625888824463,
        0.003445766866207123,
        -0.015615798532962799,
        0.0827481672167778,
        0.003839142620563507,
        0.054138652980327606,
        -0.07460098713636398,
        -0.045539531856775284,
        0.009938091039657593,
        0.07057806104421616,
        0.04208057373762131,
        0.016834400594234467,
        -0.08732694387435913,
        0.0016616582870483398,
        -0.05834529548883438,
        -0.07547232508659363,
        0.012086525559425354,
        -0.05592377856373787,
        0.08022473007440567,
        -0.04804275929927826,
        0.02848474681377411,
        0.05188068002462387,
        -0.0686987042427063,
        0.04523538798093796,
        -0.011834852397441864,
        0.04579954594373703,
        0.08553647249937057,
        -0.03766806051135063,
        -0.03828134015202522,
        0.07022889703512192,
        0.009828820824623108,
        -0.008815214037895203,
        0.06705743819475174,
        -0.042704302817583084,
        -0.004364274442195892,
        0.0607118234038353,
        0.03454313427209854,
        -0.057170890271663666,
        0.022973597049713135,
        -0.06739052385091782,
        -0.04800136014819145,
        0.05683474987745285,
        -0.023556582629680634,
        -0.04502123221755028,
        0.006265170872211456,
        0.02159949392080307,
        -0.05494368448853493,
        -0.05960586294531822,
        -0.08560138940811157,
        0.02283809334039688,
        -0.05703076347708702,
        0.0067359283566474915,
        -0.01976878196001053,
        -0.05779360234737396,
        -0.02820461615920067,
        -0.06794323772192001,
        -0.04678685590624809,
        -0.002755172550678253,
        -0.07556453347206116,
        -0.07751952856779099,
        0.06620822101831436,
        0.008317172527313232,
        -0.03909008577466011,
        -0.002938792109489441,
        0.0655457153916359,
        -0.07373935729265213,
        -0.04686204716563225,
        -0.06391718983650208,
        -0.006425917148590088,
        -0.003041699528694153,
        -0.068881556391716,
        0.06134893745183945,
        -0.06787516176700592,
        0.08252251893281937,
        -0.060843802988529205,
        -0.012113228440284729,
        0.016527466475963593,
        -0.039286624640226364,
        0.08128563314676285,
        -0.06093795597553253,
        -0.004899226129055023
      ],
      [
        -0.06490011513233185,
        0.024535775184631348,
        0.07535877078771591,
        0.08198780566453934,
        0.01049291342496872,
        -0.0442512072622776,
        0.08589977771043777,
        0.006596453487873077,
        0.05980152636766434,
        -0.04591044411063194,
        -0.04102044180035591,
        -0.07337410748004913,
        0.08132841438055038,
        0.014662235975265503,
        -0.06347957253456116,
        0.007591575384140015,
        -0.03791021555662155,
        0.004415564239025116,
        0.029338128864765167,
        -0.04386137053370476,
        0.015423715114593506,
        -0.055806778371334076,
        0.01703205704689026,
        -0.0853421613574028,
        0.014084815979003906,
        0.08781551569700241,
        0.08141563087701797,
        0.03224240243434906,
        0.06503874808549881,
        0.08593627065420151,
        0.025046542286872864,
        0.029479116201400757,
        0.011493496596813202,
        0.07825282961130142,
        0.0759291723370552,
        -0.041565537452697754,
        -0.0036336034536361694,
        -0.0445338673889637,
        0.031716421246528625,
        -0.0856475755572319,
        0.03127782791852951,
        -0.024258039891719818,
        0.03205421566963196,
        0.02758655697107315,
        -0.04398370161652565,
        0.04585681110620499,
        0.03753411024808884,
        -0.07513369619846344,
        0.08818963915109634,
        0.0760805532336235,
        0.05499366670846939,
        -0.008971408009529114,
        0.0313149094581604,
        -0.04781946539878845,
        -0.03003428503870964,
        0.04171564429998398,
        0.03934767097234726,
        0.035000480711460114,
        -0.08429930359125137,
        0.0732455775141716,
        -0.03691864758729935,
        0.07649270445108414,
        0.07282767444849014,
        0.03276120871305466,
        0.0880604162812233,
        0.050754375755786896,
        0.05183850973844528,
        -0.030014224350452423,
        0.08197890967130661,
        0.023166127502918243,
        0.05222298949956894,
        -0.019985295832157135,
        0.06401268392801285,
        0.07840948551893234,
        -0.06772768497467041,
        0.07246113568544388,
        -0.058414943516254425,
        -0.0608530193567276,
        -0.07386486977338791,
        0.02554067224264145,
        -0.06636438518762589,
        -0.03327236697077751,
        -0.04443156346678734,
        0.023623138666152954,
        -0.0867762416601181,
        -0.04052087664604187,
        0.0006466060876846313,
        0.007937461137771606,
        -0.039918333292007446,
        0.031666338443756104,
        -0.05831456929445267,
        -0.07485518604516983,
        -0.012565724551677704,
        -0.04778701439499855,
        0.05571410804986954,
        -0.06041509285569191,
        -0.007420405745506287,
        0.036712415516376495,
        -0.07740511745214462,
        0.06842317432165146,
        -0.04016146808862686,
        -0.024051912128925323,
        -0.054068367928266525,
        -0.032936833798885345,
        -0.03408162668347359,
        -0.07865474373102188,
        0.030202969908714294,
        -0.00028315186500549316,
        0.08646418899297714,
        0.059633515775203705,
        0.07689204066991806,
        0.02600620687007904,
        0.04644446820020676,
        0.08276549726724625,
        0.0725703313946724,
        -0.06791751086711884,
        -0.019819214940071106,
        -0.0852474570274353,
        0.00334380567073822,
        -0.031217854470014572,
        0.07671371847391129,
        0.013974659144878387,
        0.0009727925062179565,
        -0.06393592059612274,
        -0.06936106830835342,
        0.013914436101913452,
        -0.043918583542108536,
        -0.04059256613254547
      ],
      [
        0.17357948422431946,
        0.14415249228477478,
        -0.03934207931160927,
        0.3196166753768921,
        0.1965704709291458,
        -0.5234586000442505,
        0.17498278617858887,
        0.02004466950893402,
        -0.19545109570026398,
        0.29824098944664,
        0.23057124018669128,
        -0.0034424737095832825,
        0.0847468301653862,
        -0.05842256918549538,
        0.3628333508968353,
        0.0973811075091362,
        0.2212887704372406,
        0.24706260859966278,
        0.20908412337303162,
        0.0041543543338775635,
        0.22381560504436493,
        0.16991624236106873,
        0.2299024611711502,
        0.38429585099220276,
        0.09432724118232727,
        -0.4671788513660431,
        0.06224498897790909,
        0.0018141218461096287,
        0.26164668798446655,
        0.6855886578559875,
        0.41456863284111023,
        0.0404854491353035,
        0.013666912913322449,
        0.0625174418091774,
        0.15306714177131653,
        0.10823307186365128,
        -0.041606925427913666,
        0.2782776355743408,
        0.028958939015865326,
        0.20798499882221222,
        -0.4854423999786377,
        -0.06840842217206955,
        -0.07887568324804306,
        -0.44187498092651367,
        -0.003529050387442112,
        -0.07398231327533722,
        0.08707722276449203,
        -0.5589427351951599,
        -0.06280435621738434,
        -0.025182265788316727,
        0.8376978635787964,
        -0.04214506968855858,
        0.14746171236038208,
        -0.0548311322927475,
        0.19475209712982178,
        -0.18265590071678162,
        0.24236729741096497,
        -0.26203423738479614,
        0.1680579036474228,
        -0.009845614433288574,
        0.23609548807144165,
        0.3217568099498749,
        -0.04101242870092392,
        0.012332580983638763,
        0.18176700174808502,
        0.1604578197002411,
        -0.4909895658493042,
        0.3294944167137146,
        -0.055482711642980576,
        0.08448954671621323,
        0.0176878422498703,
        -0.07995790988206863,
        0.199229896068573,
        0.020645692944526672,
        0.15204592049121857,
        0.17651070654392242,
        -0.019447701051831245,
        0.08746648579835892,
        0.40565335750579834,
        0.22376425564289093,
        0.2702226936817169,
        0.3362075388431549,
        0.2386036366224289,
        0.0254076961427927,
        -0.03946714103221893,
        0.23163044452667236,
        -0.08370351046323776,
        0.24503985047340393,
        -0.010664090514183044,
        -0.5951674580574036,
        0.12931965291500092,
        0.040421005338430405,
        0.04933620244264603,
        0.08063023537397385,
        -0.031313348561525345,
        0.17525970935821533,
        -0.1941792368888855,
        0.1423032134771347,
        0.10859822481870651,
        0.04526234418153763,
        0.043109241873025894,
        0.29864582419395447,
        0.030879296362400055,
        0.01346869021654129,
        0.05821039527654648,
        0.30524009466171265,
        0.02130267210304737,
        -0.8149842619895935,
        0.10564982146024704,
        -0.6320344805717468,
        -0.01619286835193634,
        0.049070410430431366,
        -0.85426265001297,
        0.05852404236793518,
        -0.02788092941045761,
        0.12190950661897659,
        0.4954852759838104,
        0.05449991673231125,
        0.011157353408634663,
        0.17362546920776367,
        0.1117403507232666,
        0.24630500376224518,
        -0.4820860028266907,
        0.09488105773925781,
        0.1182062104344368,
        0.41403570771217346,
        -1.7902684211730957,
        -0.2829497754573822
      ],
      [
        0.17351354658603668,
        0.21529878675937653,
        -0.007084757089614868,
        0.3269366919994354,
        0.1734665036201477,
        -0.22148942947387695,
        0.24839481711387634,
        -0.16470098495483398,
        -0.18230780959129333,
        0.34723347425460815,
        0.14523078501224518,
        0.0424504354596138,
        -0.04590997099876404,
        -0.05266107618808746,
        0.0645870566368103,
        0.051548633724451065,
        0.3230563998222351,
        0.1257438212633133,
        0.14316436648368835,
        0.08812936395406723,
        0.12198000401258469,
        0.1670326292514801,
        0.24272502958774567,
        0.3026391863822937,
        -0.060286153107881546,
        -0.5287656188011169,
        0.055534832179546356,
        -0.0711236372590065,
        0.15196660161018372,
        0.9168543219566345,
        0.1773792952299118,
        -0.01989717036485672,
        -0.005148708820343018,
        -0.01486169546842575,
        0.26908284425735474,
        0.12135233730077744,
        0.055030129849910736,
        0.2996751070022583,
        0.009273484349250793,
        0.17396560311317444,
        -1.159278392791748,
        0.04503683000802994,
        -0.0030540120787918568,
        -0.22429285943508148,
        0.011992656625807285,
        -0.06686370819807053,
        -0.07734404504299164,
        -0.6711494326591492,
        0.015826404094696045,
        0.003765020752325654,
        0.9714857935905457,
        -0.06278116255998611,
        0.050392575562000275,
        0.06100524216890335,
        0.05593537166714668,
        -0.2982419729232788,
        0.22325816750526428,
        -1.3854414224624634,
        0.1774759143590927,
        -0.09902360290288925,
        0.1844041496515274,
        0.22238025069236755,
        -0.04618372768163681,
        0.06772247701883316,
        0.1549779176712036,
        0.10405753552913666,
        -0.38658758997917175,
        0.45075520873069763,
        0.004264965653419495,
        0.08729807287454605,
        0.018075719475746155,
        -0.08237075805664062,
        0.20119252800941467,
        0.08087923377752304,
        0.17435647547245026,
        0.1622662991285324,
        -0.052177008241415024,
        0.04900818318128586,
        0.3245790898799896,
        0.1575395166873932,
        0.24820618331432343,
        0.20961202681064606,
        0.16759254038333893,
        0.03463809937238693,
        -0.06732278317213058,
        0.14417371153831482,
        0.05291692167520523,
        0.1924515813589096,
        0.04481775313615799,
        -0.6098940968513489,
        0.2569699287414551,
        -0.007457451429218054,
        -0.029792509973049164,
        0.017929978668689728,
        -0.03167072311043739,
        0.10200276225805283,
        -0.45447149872779846,
        0.16470344364643097,
        0.12983785569667816,
        0.030212335288524628,
        -0.014815646223723888,
        0.2634386718273163,
        0.08197697252035141,
        0.00026145103038288653,
        -0.02065267413854599,
        0.0800819918513298,
        0.02900759130716324,
        -0.8812032341957092,
        0.16885632276535034,
        -0.9704703092575073,
        0.029385730624198914,
        0.08469455689191818,
        -1.3746639490127563,
        -0.0278534684330225,
        -0.08391840010881424,
        0.15805178880691528,
        0.45425525307655334,
        0.0785493478178978,
        0.012813638895750046,
        0.21747687458992004,
        -0.39669981598854065,
        0.1632547378540039,
        -0.4359096884727478,
        0.04049469530582428,
        0.274897962808609,
        0.3826262950897217,
        -2.5323121547698975,
        -0.6400838494300842
      ],
      [
        0.09385914355516434,
        0.1439756602048874,
        -0.023657888174057007,
        -0.09099264442920685,
        0.1446080356836319,
        -0.39700064063072205,
        0.025669125840067863,
        -0.09254162758588791,
        -0.17634636163711548,
        0.17029616236686707,
        0.0539449043571949,
        -0.06854375451803207,
        -0.04738881066441536,
        -0.014410220086574554,
        0.10520514845848083,
        0.09477503597736359,
        0.09964270889759064,
        0.20053842663764954,
        0.3239433169364929,
        -0.03854189068078995,
        0.11484993249177933,
        0.26366448402404785,
        0.35671234130859375,
        0.21448367834091187,
        -0.05296167731285095,
        -0.45631349086761475,
        -0.0730525329709053,
        0.02615164779126644,
        0.21439357101917267,
        0.7463891506195068,
        0.22652298212051392,
        -0.03107515722513199,
        0.03753822296857834,
        0.06803128868341446,
        0.1760575771331787,
        0.16312968730926514,
        -0.019724637269973755,
        0.2999572157859802,
        -0.03827599808573723,
        0.14618484675884247,
        0.014869307167828083,
        0.042780302464962006,
        0.10177041590213776,
        -0.5373498201370239,
        -0.0715596154332161,
        0.07214639335870743,
        -0.016631409525871277,
        -0.3090452551841736,
        -0.004265099763870239,
        -0.06242462992668152,
        0.6352956891059875,
        -0.016466787084937096,
        0.18289421498775482,
        -0.030496079474687576,
        0.10481016337871552,
        -0.4491035044193268,
        0.16557307541370392,
        0.19508999586105347,
        0.15558312833309174,
        0.0341784730553627,
        0.2394307553768158,
        0.2553654611110687,
        -0.030779074877500534,
        -0.041724514216184616,
        0.260785847902298,
        0.10240764915943146,
        -0.5524559617042542,
        0.3527393639087677,
        -0.05802389234304428,
        -0.059422969818115234,
        -0.0863310918211937,
        -0.04944280534982681,
        0.2629399299621582,
        0.0053851306438446045,
        0.2338007241487503,
        0.10260699689388275,
        -0.014768487773835659,
        0.02133382111787796,
        0.4672297537326813,
        0.24774132668972015,
        0.010438687168061733,
        0.28236836194992065,
        0.11694076657295227,
        0.10607987642288208,
        -0.014836080372333527,
        0.26746678352355957,
        0.0794549435377121,
        0.12227679044008255,
        -0.021486029028892517,
        -0.2354150414466858,
        0.08609066158533096,
        0.05514209344983101,
        -0.05551789328455925,
        0.08209186047315598,
        -0.05792665854096413,
        0.12953773140907288,
        -0.32204470038414,
        0.12298224866390228,
        0.22146134078502655,
        0.06081291288137436,
        0.19712530076503754,
        0.06423507630825043,
        0.000990644097328186,
        -0.045616552233695984,
        0.021054424345493317,
        0.2974168658256531,
        0.024546952918171883,
        -1.102264404296875,
        0.07192061096429825,
        -0.436771959066391,
        0.046233125030994415,
        -0.03198820352554321,
        -0.4331611096858978,
        0.01946190930902958,
        0.026882462203502655,
        0.10961256921291351,
        0.4717918336391449,
        -0.030026372522115707,
        -0.0022919164039194584,
        0.22547762095928192,
        0.19106271862983704,
        0.19929906725883484,
        -0.1931677609682083,
        0.13113045692443848,
        0.14704732596874237,
        0.12562087178230286,
        -1.2247282266616821,
        -0.17942148447036743
      ],
      [
        -0.06752260029315948,
        0.03608115762472153,
        0.05004895478487015,
        0.07791536301374435,
        -0.0841386616230011,
        0.07981134206056595,
        0.06700784713029861,
        0.0869530513882637,
        0.04817219823598862,
        -0.042966730892658234,
        0.0670524314045906,
        0.08077960461378098,
        -0.033797040581703186,
        -0.014447994530200958,
        0.06916672736406326,
        0.07115107029676437,
        0.05838815122842789,
        0.06771715730428696,
        -0.04542262852191925,
        -0.015248320996761322,
        -0.035311926156282425,
        0.04593878239393234,
        0.02202747017145157,
        -0.06827584654092789,
        -0.01110260933637619,
        -0.0720767229795456,
        -0.08318375796079636,
        0.08057727664709091,
        -0.044461194425821304,
        0.03945033997297287,
        -0.01968219131231308,
        -0.017898574471473694,
        -5.708634853363037e-05,
        0.06893650442361832,
        -0.012227296829223633,
        0.07313831895589828,
        0.05171670764684677,
        0.060635171830654144,
        -0.08016295731067657,
        -0.04132997989654541,
        -0.07201213389635086,
        -0.018772676587104797,
        -0.018307171761989594,
        0.017960846424102783,
        0.0791933611035347,
        0.03967798501253128,
        -0.06150570511817932,
        -0.055432166904211044,
        0.06674253195524216,
        0.00879853218793869,
        0.024970129132270813,
        -0.04623022302985191,
        -0.010778889060020447,
        0.025164596736431122,
        -0.05800267308950424,
        0.0576876625418663,
        0.04404781013727188,
        -0.051545627415180206,
        -0.03624637424945831,
        -0.02078019082546234,
        0.013755537569522858,
        -0.03242260962724686,
        0.08455415815114975,
        -0.08513647317886353,
        -0.049957048147916794,
        -0.05364982783794403,
        0.023898474872112274,
        0.012542925775051117,
        -0.025186799466609955,
        0.07543575018644333,
        -0.07630151510238647,
        0.03115248680114746,
        -0.048635829240083694,
        -0.02012678235769272,
        -0.08511801064014435,
        -0.06598252058029175,
        -0.07499302178621292,
        0.03856153041124344,
        -0.033190399408340454,
        0.04623601585626602,
        -0.04790196940302849,
        -0.021899498999118805,
        0.010699145495891571,
        0.0740627720952034,
        -0.023821860551834106,
        0.051240645349025726,
        0.02438385784626007,
        0.05375801771879196,
        0.05583564192056656,
        0.035869404673576355,
        -0.026653267443180084,
        -0.024807646870613098,
        0.034409694373607635,
        0.048175401985645294,
        -0.004717588424682617,
        0.044306911528110504,
        -0.053176119923591614,
        0.049820803105831146,
        -0.010846562683582306,
        -0.0608263723552227,
        -0.04294648766517639,
        -0.06750202178955078,
        0.01782946288585663,
        -0.05241965875029564,
        -0.025311194360256195,
        -0.0055379718542099,
        -0.0539310947060585,
        0.0022696107625961304,
        -0.011217594146728516,
        0.027996309101581573,
        0.06385240703821182,
        -0.0533573180437088,
        0.04832599312067032,
        -0.0018726661801338196,
        -0.05051879212260246,
        -0.04008534178137779,
        0.02249819040298462,
        0.018403641879558563,
        -0.002854965627193451,
