{
  "weights": {
    "fc1.weight": [
      [
        -0.10037341713905334,
        0.0005113184452056885,
        0.053951866924762726,
        -0.018633943051099777,
        0.13851326704025269,
        0.05817036330699921,
        -0.016191810369491577,
        -0.013439074158668518,
        -0.03024112991988659,
        0.06566289067268372,
        0.037681326270103455,
        0.0727386474609375,
        -0.19945445656776428,
        0.03333605080842972,
        0.09096445143222809,
        -0.08648721128702164,
        -0.1407315731048584,
        -0.10467007756233215,
        -0.08542575687170029,
        -0.12379053980112076,
        -0.0009074825211428106,
        0.06295828521251678,
        -0.08119486272335052,
        -0.10354557633399963,
        0.11993266642093658,
        0.16628848016262054,
        0.01144331693649292,
        0.02092072367668152,
        -0.049244120717048645,
        0.06726206839084625,
        0.06757582724094391,
        -0.09652650356292725
      ],
      [
        0.19903939962387085,
        -0.02302400767803192,
        0.692401647567749,
        0.2890493869781494,
        0.5123183727264404,
        -0.1261776089668274,
        0.10838161408901215,
        0.0721103698015213,
        -0.9210026264190674,
        -0.113780178129673,
        -0.02843446284532547,
        -0.07842618227005005,
        -0.9562580585479736,
        -0.04627970606088638,
        0.006383657921105623,
        0.048097096383571625,
        0.13153176009655,
        -0.043058622628450394,
        0.12157617509365082,
        -0.09831458330154419,
        -0.02024274505674839,
        -0.18410423398017883,
        0.08740626275539398,
        -0.08407510071992874,
        0.09168143570423126,
        -0.1361069232225418,
        0.10547114908695221,
        0.1104225367307663,
        -0.02211339771747589,
        -0.05842280387878418,
        -0.0580882802605629,
        -0.02274191379547119
      ],
      [
        -0.11732684075832367,
        0.15148897469043732,
        -0.05536237359046936,
        -0.16604022681713104,
        0.06773495674133301,
        0.1721162050962448,
        0.17004995048046112,
        -0.17540107667446136,
        -0.010694190859794617,
        -0.046722859144210815,
        -0.13216125965118408,
        -0.09602299332618713,
        0.01643580198287964,
        -0.1686336100101471,
        0.04326030611991882,
        -0.11072078347206116,
        -0.05037425458431244,
        -0.07076150178909302,
        -0.16701151430606842,
        0.03929717838764191,
        -0.07275422662496567,
        0.052914202213287354,
        0.13523413240909576,
        0.09103460609912872,
        -0.139631450176239,
        0.03707757592201233,
        0.07450912892818451,
        -0.16471922397613525,
        0.022775799036026,
        0.15089307725429535,
        -0.16418011486530304,
        -0.006305575370788574
      ],
      [
        0.1527753621339798,
        0.17006151378154755,
        0.0583043247461319,
        -0.019786149263381958,
        -0.15179307758808136,
        0.0687829852104187,
        0.07741408050060272,
        -0.05077455937862396,
        -0.17225393652915955,
        0.13640423119068146,
        0.1397131234407425,
        0.09524063766002655,
        0.02303922176361084,
        -0.045532822608947754,
        0.15646739304065704,
        -0.10307110846042633,
        -0.08493474870920181,
        -0.11848539113998413,
        0.15539444983005524,
        -0.17043858766555786,
        0.11559922993183136,
        0.07353253662586212,
        0.13598205149173737,
        0.08753816783428192,
        0.15028683841228485,
        0.08962966501712799,
        -0.07036545127630234,
        -0.16389425098896027,
        -0.06122706085443497,
        0.04528075456619263,
        0.007357344031333923,
        0.04426546394824982
      ],
      [
        -0.024399621412158012,
        0.042410820722579956,
        -0.30510443449020386,
        0.17671161890029907,
        -0.27508148550987244,
        -0.022852018475532532,
        0.05183912813663483,
        -0.07471323013305664,
        -0.6882970929145813,
        0.013243213295936584,
        -0.1752493977546692,
        -0.02690523862838745,
        -0.1409827023744583,
        0.07263198494911194,
        -0.29532280564308167,
        -0.051052141934633255,
        -0.2521854341030121,
        0.04437657818198204,
        -0.02613481879234314,
        0.05465489625930786,
        -0.10207098722457886,
        0.015806477516889572,
        -0.15585695207118988,
        0.10433469712734222,
        -0.13797055184841156,
        0.1048770397901535,
        0.12746809422969818,
        0.16807527840137482,
        -0.13323351740837097,
        0.08142612874507904,
        -0.016285717487335205,
        0.16289205849170685
      ],
      [
        0.020191287621855736,
        0.11392201483249664,
        -0.1823364645242691,
        -0.15140622854232788,
        0.12380903959274292,
        -0.035460859537124634,
        -0.038484394550323486,
        0.05365924537181854,
        -0.18103255331516266,
        0.06721144914627075,
        -0.19817450642585754,
        0.048673853278160095,
        -0.08155357092618942,
        0.14981144666671753,
        -0.1460024118423462,
        -0.060059208422899246,
        0.1551945060491562,
        0.060571156442165375,
        -0.02244846522808075,
        -0.10422883927822113,
        -0.16778093576431274,
        0.11276568472385406,
        -0.18862590193748474,
        -0.1296255886554718,
        -0.11368602514266968,
        -0.03323289752006531,
        0.057062745094299316,
        -0.00042857229709625244,
        -0.06792113929986954,
        0.14970694482326508,
        -0.03333726525306702,
        0.0076701343059539795
      ],
      [
        0.2059391736984253,
        0.1368156522512436,
        -0.18148010969161987,
        0.5723118185997009,
        -0.015478929504752159,
        -0.08203129470348358,
        0.09092621505260468,
        -0.09572356194257736,
        -0.05120480805635452,
        -0.03514109551906586,
        -0.09967593103647232,
        0.03240068256855011,
        0.1575825810432434,
        -0.12477659434080124,
        0.11003636568784714,
        -0.0456034280359745,
        0.10384979099035263,
        -0.11394387483596802,
        0.13509584963321686,
        0.024054720997810364,
        -0.22171452641487122,
        -0.25694185495376587,
        0.053246065974235535,
        -0.06407090276479721,
        -0.016344383358955383,
        0.03334774076938629,
        0.1087234765291214,
        -0.1301012486219406,
        -0.13927602767944336,
        -0.1244974434375763,
        0.014054641127586365,
        0.11262170970439911
      ],
      [
        -0.007250117138028145,
        0.0890817791223526,
        0.030931049957871437,
        -0.18715575337409973,
        -0.0030173833947628736,
        0.14697004854679108,
        0.022806644439697266,
        -0.13262340426445007,
        -0.13082154095172882,
        0.06884914636611938,
        0.09249360859394073,
        0.057765185832977295,
        -0.12382470071315765,
        0.1248183622956276,
        0.029683712869882584,
        0.019536763429641724,
        0.026244262233376503,
        -0.12504105269908905,
        -0.06108047813177109,
        0.12096719443798065,
        0.08253658562898636,
        0.025504663586616516,
        0.08340764790773392,
        -0.024782046675682068,
        -0.02722957730293274,
        -0.012661606073379517,
        0.01270662248134613,
        -0.045920923352241516,
        -0.08315309882164001,
        -0.09493213146924973,
        0.12566883862018585,
        0.023021429777145386
      ],
      [
        0.1327420175075531,
        0.05005002021789551,
        -0.05867881700396538,
        0.051801566034555435,
        -0.03852111101150513,
        0.16291271150112152,
        0.003732815384864807,
        0.08651404082775116,
        0.0057509359903633595,
        0.002142190933227539,
        -0.005726993083953857,
        -0.11031880229711533,
        0.06686326861381531,
        -0.08876115828752518,
        -0.17866508662700653,
        -0.005549534223973751,
        0.06705308705568314,
        -0.060124628245830536,
        -0.08417829871177673,
        0.04647006094455719,
        0.015280100516974926,
        0.005062606651335955,
        -0.16708043217658997,
        -0.04492849111557007,
        0.02919510006904602,
        -0.10359745472669601,
        -0.1758638322353363,
        0.13789035379886627,
        -0.14715653657913208,
        -0.11414209008216858,
        0.03438617289066315,
        -0.16993440687656403
      ],
      [
        -0.23527857661247253,
        -0.15139111876487732,
        0.19087694585323334,
        -0.23708119988441467,
        -0.11936110258102417,
        0.0837627500295639,
        -0.027136504650115967,
        -0.03738461434841156,
        -1.083130121231079,
        -0.0036135464906692505,
        -0.2875578701496124,
        -0.03974822163581848,
        0.6753246784210205,
        -0.1800636500120163,
        -0.10962092131376266,
        -0.29971784353256226,
        -0.03415578976273537,
        -0.17036479711532593,
        0.1757640391588211,
        -0.16379262506961823,
        -0.2605936825275421,
        -0.22916263341903687,
        -0.18420647084712982,
        -0.11531952768564224,
        0.13384415209293365,
        0.10817034542560577,
        -0.023875340819358826,
        0.13417665660381317,
        -0.11101412028074265,
        -0.02258378267288208,
        0.17265136539936066,
        -0.10358763486146927
      ],
      [
        -0.05468384921550751,
        -0.06480305641889572,
        -0.03857995569705963,
        0.031854793429374695,
        -0.13707946240901947,
        0.16701887547969818,
        -0.15893492102622986,
        0.06591863930225372,
        0.1423441618680954,
        -0.013510599732398987,
        0.025978565216064453,
        -0.06730879098176956,
        -0.10935802757740021,
        -0.1266445368528366,
        -0.007111549377441406,
        -0.13951535522937775,
        -0.12656748294830322,
        0.08671857416629791,
        -0.11798344552516937,
        0.011181861162185669,
        -0.10818760842084885,
        -0.1591436117887497,
        -0.06685619801282883,
        0.03016696870326996,
        -0.04757247865200043,
        -0.11252070218324661,
        -0.10990734398365021,
        0.05561712384223938,
        -0.13109776377677917,
        -0.118214912712574,
        0.14684723317623138,
        -0.03470891714096069
      ],
      [
        0.03265298530459404,
        0.015236109495162964,
        -0.03251492604613304,
        0.5263412594795227,
        0.0572638101875782,
        0.03294163942337036,
        0.0024508386850357056,
        0.06195175647735596,
        -0.3065294921398163,
        -0.06806745380163193,
        -0.038460277020931244,
        -0.014730870723724365,
        0.12071171402931213,
        0.02995041385293007,
        -0.012542275711894035,
        -0.09332626312971115,
        0.03596868738532066,
        -0.11507102102041245,
        -0.1575779765844345,
        0.010613813996315002,
        0.10275227576494217,
        -0.24009360373020172,
        -0.20338161289691925,
        0.13511230051517487,
        0.07873167097568512,
        0.15614907443523407,
        0.12846754491329193,
        -0.13416090607643127,
        -0.1690443754196167,
        -0.07111705094575882,
        -0.027334630489349365,
        -0.06171406805515289
      ],
      [
        0.04756062477827072,
        0.09760554134845734,
        -0.10966897755861282,
        0.786539614200592,
        -0.07887843251228333,
        -0.10324294120073318,
        0.1534479409456253,
        -0.024456903338432312,
        0.09257004410028458,
        0.03726232051849365,
        0.19508914649486542,
        0.16131843626499176,
        0.4229469895362854,
        -0.10856346040964127,
        0.044076014310121536,
        0.025229372084140778,
        0.007896256633102894,
        0.1828724890947342,
        -0.1073584109544754,
        -0.04084046185016632,
        0.14326618611812592,
        0.06288089603185654,
        -0.01802016608417034,
        -0.09170481562614441,
        0.010695144534111023,
        0.13132594525814056,
        -0.004047423601150513,
        -0.0490855872631073,
        0.15559576451778412,
        -0.030824914574623108,
        0.12452246248722076,
        0.03748650848865509
      ],
      [
        0.046024665236473083,
        0.088290736079216,
        0.020123550668358803,
        -0.08758332580327988,
        0.07121656835079193,
        -0.12149062752723694,
        -0.04499490559101105,
        0.13537777960300446,
        -0.06831254065036774,
        0.06875969469547272,
        0.0035007107071578503,
        -0.049086347222328186,
        -0.17250238358974457,
        0.019020510837435722,
        -0.18298697471618652,
        0.12179238349199295,
        0.03419312834739685,
        -0.0019058320904150605,
        -0.053950369358062744,
        -0.02310289442539215,
        -0.1329660713672638,
        -0.12265010178089142,
        0.03895138204097748,
        0.0882064551115036,
        0.1624053567647934,
        0.05267995595932007,
        0.13659952580928802,
        0.04470333456993103,
        0.1252375990152359,
        -0.11102457344532013,
        0.13563041388988495,
        0.061031222343444824
      ],
      [
        0.20645007491111755,
        -0.11389146745204926,
        -0.0764131247997284,
        0.5882207751274109,
        0.10604055225849152,
        0.05310766398906708,
        0.12889643013477325,
        0.042220816016197205,
        -0.5662375688552856,
        -0.043245553970336914,
        0.04905296117067337,
        -0.07690846920013428,
        -0.5052016377449036,
        0.06073315814137459,
        0.036758605390787125,
        -0.0809418261051178,
        -0.22775183618068695,
        0.044805433601140976,
        -0.034091442823410034,
        0.07118530571460724,
        -0.01176278106868267,
        0.0054487986490130424,
        -0.023730242624878883,
        0.05358967185020447,
        -0.17566607892513275,
        -0.05399325489997864,
        0.1329113095998764,
        0.1268770843744278,
        -0.05731058865785599,
        0.11133168637752533,
        -0.06417251378297806,
        -0.03524291515350342
      ],
      [
        0.05129207670688629,
        0.01684550940990448,
        -0.10319244861602783,
        0.10391782224178314,
        0.15176300704479218,
        0.06688781082630157,
        -0.017004087567329407,
        0.07153363525867462,
        -0.04966653883457184,
        -0.07128884643316269,
        0.032722219824790955,
        0.14363239705562592,
        0.03942953050136566,
        -0.15722335875034332,
        -0.14447754621505737,
        -0.15647265315055847,
        0.0010430216789245605,
        0.05613723397254944,
        0.04982614517211914,
        0.02134135365486145,
        -0.17418310046195984,
        -0.16256938874721527,
        -0.008148416876792908,
        -0.1491323858499527,
        -0.11277960985898972,
        0.1705162674188614,
        0.15124864876270294,
        -0.031930744647979736,
        0.12256856262683868,
        0.07119937241077423,
        0.10821281373500824,
        0.09540782868862152
      ],
      [
        0.3081614375114441,
        0.1287715882062912,
        -0.26598307490348816,
        0.20461808145046234,
        -0.056407347321510315,
        -0.02281607687473297,
        -0.03400106728076935,
        -0.14468368887901306,
        -1.2128015756607056,
        -0.10337964445352554,
        -0.18362094461917877,
        0.053604066371917725,
        0.2517184317111969,
        -0.024154100567102432,
        -0.10407644510269165,
        0.0708930715918541,
        0.0942583754658699,
        -0.14056861400604248,
        0.06673040986061096,
        -0.004711434245109558,
        -0.0750240609049797,
        -0.07861328125,
        -0.06448971480131149,
        0.02670222520828247,
        -0.11272379010915756,
        0.030363544821739197,
        0.03430826961994171,
        -0.09156396239995956,
        -0.14827151596546173,
        -0.14493608474731445,
        0.06960007548332214,
        -0.041175469756126404
      ],
      [
        -0.09862935543060303,
        -0.12494143843650818,
        -0.17473962903022766,
        -0.13424767553806305,
        0.07992516458034515,
        -0.09989498555660248,
        0.14890263974666595,
        -0.044464707374572754,
        -0.15084105730056763,
        -0.07022727280855179,
        -0.13929785788059235,
        -0.08668683469295502,
        0.026093199849128723,
        -0.13854490220546722,
        -0.12016835808753967,
        -0.008976653218269348,
        0.162225142121315,
        0.1692304164171219,
        -0.041091278195381165,
        -0.06243541091680527,
        -0.1126650795340538,
        -0.13202618062496185,
        -0.14964082837104797,
        -0.08171795308589935,
        0.08718951046466827,
        -0.13753148913383484,
        0.07467763125896454,
        -0.08524185419082642,
        -0.11136653274297714,
        0.1134527176618576,
        0.08339692652225494,
        0.16079731285572052
      ],
      [
        0.13528011739253998,
        0.07487817108631134,
        0.0782678872346878,
        -0.1473882496356964,
        0.05739019811153412,
        0.026533111929893494,
        -0.1624322384595871,
        0.0749729722738266,
        0.119895800948143,
        0.11073379218578339,
        0.12058337032794952,
        -0.06400557607412338,
        -0.11183162778615952,
        -0.03282853960990906,
        -0.03352916240692139,
        -0.15740586817264557,
        0.08137701451778412,
        -0.0893690437078476,
        0.15471963584423065,
        -0.1536848545074463,
        0.11679716408252716,
        -0.0999302789568901,
        -0.011518433690071106,
        -0.0937756821513176,
        -0.15024980902671814,
        0.1476915031671524,
        0.11779524385929108,
        0.14444966614246368,
        0.12735264003276825,
        0.08366440236568451,
        -0.013119891285896301,
        -0.16243308782577515
      ],
      [
        0.060867272317409515,
        0.07610262930393219,
        -0.20287691056728363,
        0.1603129506111145,
        -0.21313327550888062,
        -0.14450603723526,
        0.17003943026065826,
        -0.010857552289962769,
        -0.3883874714374542,
        -0.15915027260780334,
        -0.2510964572429657,
        -0.16444730758666992,
        0.18581196665763855,
        -0.15292908251285553,
        0.013569645583629608,
        -0.004646224435418844,
        -0.14245545864105225,
        0.026532284915447235,
        0.14504145085811615,
        0.03680320084095001,
        -0.10238038003444672,
        -0.07716286182403564,
        -0.2587345540523529,
        -0.07009474188089371,
        -0.10247447341680527,
        0.020560532808303833,
        -0.08311240375041962,
        -0.04761023819446564,
        -0.16821961104869843,
        -0.15356789529323578,
        -0.11558109521865845,
        0.14950542151927948
      ],
      [
        0.3630676567554474,
        -0.06755338609218597,
        0.36910155415534973,
        0.48522382974624634,
        0.08222725242376328,
        -0.09068585187196732,
        0.08431746065616608,
        -0.11330541223287582,
        -0.8475006818771362,
        -0.00018499791622161865,
        -0.2297348976135254,
        -0.1455610692501068,
        0.0018742213724181056,
        -0.1680009812116623,
        0.2701094448566437,
        0.036752697080373764,
        0.08678335696458817,
        -0.2948005199432373,
        0.16430126130580902,
        -0.09682212024927139,
        -0.21440041065216064,
        -0.03570716455578804,
        0.07017110288143158,
        0.09224195778369904,
        -0.14938712120056152,
        -0.07032997906208038,
        -0.16570527851581573,
        0.06751278042793274,
        -0.06035768240690231,
        -0.004181370139122009,
        0.15003101527690887,
        -0.09754257649183273
      ],
      [
        -0.05934908986091614,
        0.043038785457611084,
        -0.0955866277217865,
        -0.04607537016272545,
        -0.07806684076786041,
        0.1271975189447403,
        0.04962563514709473,
        -0.15788041055202484,
        0.05749191343784332,
        -0.012272253632545471,
        0.05271640792489052,
        -0.16422830522060394,
        -0.10239021480083466,
        -0.009438863955438137,
        -0.008704028092324734,
        -0.010208819061517715,
        0.040790677070617676,
        0.0767584964632988,
        0.007518768310546875,
        0.09774048626422882,
        -0.014019159600138664,
        -0.21180449426174164,
        -0.18776041269302368,
        0.05522327125072479,
        0.021790608763694763,
        -0.1311943084001541,
        0.1281171292066574,
        -0.08367763459682465,
        -0.12807950377464294,
        -0.04086369276046753,
        -0.12424011528491974,
        -0.14311617612838745
      ],
      [
        0.3945930600166321,
        0.0958956629037857,
        -0.0018020994029939175,
        0.035397566854953766,
        -0.0627179816365242,
        0.0466030091047287,
        -0.017587557435035706,
        0.12386049330234528,
        -0.3242156505584717,
        -0.12602238357067108,
        0.057034511119127274,
        0.1189129501581192,
        0.24483996629714966,
        -0.2915235757827759,
        -0.42953744530677795,
        -0.19523151218891144,
        -0.3599565029144287,
        -0.10783347487449646,
        0.04664678871631622,
        -0.016360938549041748,
        -0.20913106203079224,
        -0.07213103771209717,
        -0.21144337952136993,
        -0.030610159039497375,
        0.09574882686138153,
        -0.1671997755765915,
        -0.10276048630475998,
        0.053895339369773865,
        0.042344242334365845,
        0.06147274374961853,
        0.10022033751010895,
        -0.020186766982078552
      ],
      [
        -0.23990730941295624,
        0.0677814930677414,
        0.3285113573074341,
        -0.15889477729797363,
        0.0006622892105951905,
        0.06648525595664978,
        -0.1000044196844101,
        0.16786672174930573,
        -0.3244549632072449,
        0.12467588484287262,
        -0.404317170381546,
        -0.17341776192188263,
        -1.1860400438308716,
        0.03615158051252365,
        -0.48384368419647217,
        0.025913700461387634,
        0.33070582151412964,
        -0.44296273589134216,
        -0.12213844060897827,
        -0.09359221905469894,
        -0.08595167100429535,
        -0.06398151814937592,
        -0.06912556290626526,
        0.052069589495658875,
        -0.03809434175491333,
        0.06436541676521301,
        -0.10527635365724564,
        0.02097545564174652,
        0.039222896099090576,
        -0.03911593556404114,
        0.13261793553829193,
        0.15969307720661163
      ],
      [
        -0.09930392354726791,
        -0.08343050628900528,
        -0.06600058823823929,
        -0.48531708121299744,
        0.20643460750579834,
        -0.04258483648300171,
        -0.09584804624319077,
        -0.05349383503198624,
        0.42544111609458923,
        -0.06427273899316788,
        0.2174336165189743,
        -0.06449146568775177,
        -1.9479656219482422,
        0.21913620829582214,
        0.05341663211584091,
        0.09520534425973892,
        -0.2960543632507324,
        0.15197886526584625,
        0.1276380866765976,
        0.03092995285987854,
        0.2011939287185669,
        0.1978142410516739,
        0.08929278701543808,
        -0.045229360461235046,
        -0.13626345992088318,
        -0.03119918704032898,
        -0.02493181824684143,
        0.018146872520446777,
        0.04730893671512604,
        -0.17316396534442902,
        0.11581002175807953,
        -0.0199555903673172
      ],
      [
        0.0007825707434676588,
        0.0293390154838562,
        -0.1346137374639511,
        0.7637230753898621,
        -0.020922169089317322,
        -0.02706208825111389,
        0.039889439940452576,
        0.0017614662647247314,
        0.2979695200920105,
        0.1192948967218399,
        0.009685254655778408,
        0.024976417422294617,
        0.191493421792984,
        -0.1412157267332077,
        -0.17522001266479492,
        -0.03573436290025711,
        0.04909631982445717,
        0.0985570102930069,
        -0.05617848038673401,
        -0.03561006486415863,
        -0.009453680366277695,
        0.16138441860675812,
        -0.06957507133483887,
        0.10853840410709381,
        -0.12175151705741882,
        -0.1689295470714569,
        -0.15625807642936707,
        0.017802223563194275,
        -0.06805672496557236,
        0.08943502604961395,
        -0.13787443935871124,
        -0.1614253968000412
      ],
      [
        0.060657575726509094,
        -0.08849162608385086,
        -0.030909761786460876,
        -0.028440669178962708,
        -0.07175873965024948,
        0.16033698618412018,
        -0.1310834139585495,
        -0.03352898359298706,
        0.09595413506031036,
        -0.04838182032108307,
        0.12777478992938995,
        0.10585375130176544,
        -0.051584333181381226,
        -0.17291811108589172,
        -0.0806322693824768,
        -0.16341513395309448,
        0.11674283444881439,
        -0.07308362424373627,
        0.06791235506534576,
        -0.01115618646144867,
        -0.13407465815544128,
        0.09757356345653534,
        0.11123843491077423,
        0.05053366720676422,
        0.13237284123897552,
        0.1447644680738449,
        -0.16890452802181244,
        -0.16978174448013306,
        0.11347289383411407,
        -0.07525115460157394,
        -0.13342031836509705,
        -0.07596318423748016
      ],
      [
        0.34613561630249023,
        -0.1490444839000702,
        -0.40013495087623596,
        0.4458833932876587,
        -0.0382249653339386,
        0.08321456611156464,
        -0.06931973993778229,
        0.03596079349517822,
        -0.047703422605991364,
        -0.09636057168245316,
        -0.071790911257267,
        -0.10014209151268005,
        0.014003947377204895,
        -0.052000828087329865,
        -0.2344713658094406,
        -0.08051619678735733,
        0.14205068349838257,
        -0.04106646031141281,
        -0.029513180255889893,
        -0.17116442322731018,
        -0.24853873252868652,
        0.03641925007104874,
        0.01651526428759098,
        -0.14198434352874756,
        0.058872610330581665,
        -0.12818489968776703,
        0.013532653450965881,
        0.14692364633083344,
        0.07500599324703217,
        -0.16658450663089752,
        -0.02187657356262207,
        -0.16862627863883972
      ],
      [
        -0.10657066851854324,
        0.12147833406925201,
        -0.12613701820373535,
        -0.1968916803598404,
        -0.1883196085691452,
        0.13211284577846527,
        -0.12008260190486908,
        0.03461407124996185,
        -0.04769572988152504,
        0.13445009291172028,
        0.06636783480644226,
        0.16216324269771576,
        0.05018751323223114,
        -0.07596703618764877,
        -0.014246140606701374,
        -0.20266160368919373,
        0.029692674055695534,
        -0.012903466820716858,
        -0.14564338326454163,
        0.13662780821323395,
        0.09329639375209808,
        0.14878767728805542,
        0.048618633300065994,
        0.13013406097888947,
        -0.16143053770065308,
        0.06468826532363892,
        0.10068149864673615,
        -0.16220970451831818,
        -0.015668809413909912,
        -0.12418149411678314,
        0.027558818459510803,
        -0.01299254596233368
      ],
      [
        0.20403657853603363,
        0.1340661495923996,
        -0.574993908405304,
        -0.3514793813228607,
        0.4977143704891205,
        -0.01328989863395691,
        0.1129344254732132,
        -0.1019403263926506,
        0.16508284211158752,
        -0.11021480709314346,
        0.20291408896446228,
        -0.15294231474399567,
        -0.26017242670059204,
        0.02174435183405876,
        -1.2421294450759888,
        0.07349144667387009,
        -0.05139504745602608,
        0.05456765368580818,
        0.09169958531856537,
        -0.13655854761600494,
        0.1592330038547516,
        -0.044243570417165756,
        0.03788803145289421,
        -0.15258106589317322,
        0.005766779184341431,
        -0.12212283164262772,
        0.13585256040096283,
        0.0657171756029129,
        -0.12020348012447357,
        0.061579734086990356,
        -0.17652907967567444,
        -0.11419010162353516
      ],
      [
        -0.28556370735168457,
        0.009320124983787537,
        -0.9878391623497009,
        0.10101018846035004,
        -0.0033984507899731398,
        0.15110914409160614,
        -0.005945712327957153,
        0.16047240793704987,
        -0.4093076288700104,
        -0.15298700332641602,
        -0.08894696086645126,
        -0.10428661853075027,
        -0.6732223629951477,
        0.053872931748628616,
        0.02116214483976364,
        -0.2111961543560028,
        -0.21178922057151794,
        -0.14199604094028473,
        -0.13985490798950195,
        -0.030387312173843384,
        -0.006422995589673519,
        -0.13492034375667572,
        -0.15063053369522095,
        0.16920845210552216,
        0.1687387079000473,
        -0.12992721796035767,
        -0.06832318007946014,
        0.09450192749500275,
        -0.07793053239583969,
        0.1514110118150711,
        0.019593939185142517,
        -0.013089150190353394
      ],
      [
        -0.5145421028137207,
        -0.005340158939361572,
        0.40752899646759033,
        0.11814846098423004,
        -0.1695367693901062,
        0.04682028293609619,
        0.08646957576274872,
        0.11030514538288116,
        -0.04316495731472969,
        0.15067221224308014,
        -0.1441834270954132,
        -0.015804439783096313,
        0.1718328297138214,
        -0.04557137191295624,
        -0.09402413666248322,
        -0.23311427235603333,
        -0.31892579793930054,
        -0.007261346094310284,
        -0.12854960560798645,
        0.015265434980392456,
        -0.2850549817085266,
        0.02093975991010666,
        -0.23071984946727753,
        -0.16959165036678314,
        0.08933542668819427,
        0.16467685997486115,
        0.10528640449047089,
        -0.04665917158126831,
        0.059842079877853394,
        0.1381039172410965,
        -0.01972426474094391,
        0.15731815993785858
      ],
      [
        -0.056883305311203,
        -0.17407192289829254,
        -0.07252271473407745,
        -0.11414607614278793,
        -0.04411241412162781,
        -0.04638391733169556,
        0.10444177687168121,
        -0.04332645237445831,
        0.07008814811706543,
        -0.02606099843978882,
        0.06767711043357849,
        0.11563284695148468,
        0.03292575478553772,
        -0.13129901885986328,
        -0.11346287280321121,
        -0.03906892240047455,
        0.0634208470582962,
        0.11931128799915314,
        -0.12858666479587555,
        -0.07703204452991486,
        0.008681297302246094,
        0.093955859541893,
        0.008012279868125916,
        -0.1356537938117981,
        0.14244602620601654,
        -0.02468395233154297,
        0.10754810273647308,
        0.09585036337375641,
        -0.04164224863052368,
        -0.16231068968772888,
        0.09710438549518585,
        -0.12991002202033997
      ],
      [
        0.02938917651772499,
        0.008471682667732239,
        0.025046871975064278,
        0.2577717900276184,
        -0.028540505096316338,
        0.12747658789157867,
        0.09150825440883636,
        0.08856625854969025,
        -0.10266054421663284,
        0.06293287873268127,
        -0.22563549876213074,
        -0.06855254620313644,
        -0.11657671630382538,
        -0.0025032064877450466,
        -0.2597276568412781,
        -0.10320375859737396,
        0.13393716514110565,
        -0.1967063844203949,
        -0.16453279554843903,
        0.03705178201198578,
        -0.15786133706569672,
        -0.2017713040113449,
        -0.0594533309340477,
        0.1335076540708542,
        0.08516843616962433,
        0.090733602643013,
        0.1603674739599228,
        0.08289898931980133,
        0.14212961494922638,
        0.09045307338237762,
        -0.04903268814086914,
        0.14453135430812836
      ],
      [
        0.5868058204650879,
        -0.016206055879592896,
        0.04442722722887993,
        -0.4729671776294708,
        -0.2542789876461029,
        -0.12875080108642578,
        0.10724841058254242,
        0.15771059691905975,
        -0.3632991909980774,
        0.17625762522220612,
        -0.03481762483716011,
        0.12281496822834015,
        0.13496969640254974,
        0.035435378551483154,
        -0.9359950423240662,
        -0.024618033319711685,
        -0.1470935195684433,
        0.06887666136026382,
        0.1324983686208725,
        -0.13202638924121857,
        -0.23056714236736298,
        -0.015362766571342945,
        -0.16070926189422607,
        0.011102572083473206,
        -0.13673368096351624,
        -0.13582207262516022,
        0.17176435887813568,
        0.12312869727611542,
        0.0558319091796875,
        0.07622353732585907,
        0.13186992704868317,
        -0.09018639475107193
      ],
      [
        -0.35783836245536804,
        -0.0074683427810668945,
        0.2888352870941162,
        0.20326897501945496,
        -0.8384326696395874,
        -0.03529000282287598,
        -0.16982275247573853,
        0.06431889533996582,
        -0.0463930144906044,
        0.10324861109256744,
        -0.01635783165693283,
        0.08137769997119904,
        0.09493689984083176,
        -0.21237894892692566,
        0.10186547040939331,
        0.0649520680308342,
        -0.025915546342730522,
        0.11122617870569229,
        0.15680234134197235,
        -0.011243268847465515,
        0.07555964589118958,
        -0.08614866435527802,
        -0.22878091037273407,
        -0.17563559114933014,
        0.0952858179807663,
        -0.04405111074447632,
        -0.1670045405626297,
        -0.13612303137779236,
        0.026757270097732544,
        0.041182741522789,
        0.13247467577457428,
        0.048266783356666565
      ],
      [
        0.03160196542739868,
        0.013387426733970642,
        0.3674025237560272,
        0.1258646845817566,
        -0.5375849008560181,
        -0.10213863104581833,
        -0.12478594481945038,
        -0.009420260787010193,
        -0.7732118368148804,
        0.08650146424770355,
        0.17015111446380615,
        0.17112384736537933,
        0.5877655744552612,
        0.2383207231760025,
        -0.058197058737277985,
        0.16248168051242828,
        0.02974170260131359,
        0.1262008398771286,
        -0.1441817730665207,
        -0.16674461960792542,
        0.2278575897216797,
        0.2734859585762024,
        0.17073772847652435,
        0.047252997756004333,
        -0.11236868053674698,
        0.16509868204593658,
        -0.06354539096355438,
        0.1672212928533554,
        -0.17208680510520935,
        0.17069466412067413,
        0.010112971067428589,
        -0.08956344425678253
      ],
      [
        0.29208481311798096,
        0.16469509899616241,
        0.20077140629291534,
        -0.42754945158958435,
        0.1402987390756607,
        -0.05392925441265106,
        0.15154720842838287,
        0.12983031570911407,
        0.014125287532806396,
        -0.09451272338628769,
        0.14715120196342468,
        0.050982072949409485,
        -1.152374505996704,
        0.06526897847652435,
        0.02784673497080803,
        0.056241054087877274,
        0.10494736582040787,
        0.19443300366401672,
        0.1128288060426712,
        -0.03106105327606201,
        0.0014923658454790711,
        0.12918046116828918,
        0.13147149980068207,
        0.11131410300731659,
        0.1675194352865219,
        -0.12759016454219818,
        0.05291125178337097,
        -0.032352134585380554,
        -0.16473369300365448,
        -0.006272509694099426,
        -0.06967843323945999,
        0.04488019645214081
      ],
      [
        0.6855298280715942,
        -0.010563194751739502,
        0.42256760597229004,
        -0.37036728858947754,
        -0.18887290358543396,
        -0.1099422425031662,
        0.14773420989513397,
        -0.06918501853942871,
        -0.5873188972473145,
        0.07021111249923706,
        -0.06395696848630905,
        -0.09401927143335342,
        -0.2242754101753235,
        -0.11615913361310959,
        0.06921468675136566,
        0.060687314718961716,
        -0.18507549166679382,
        -0.0822577252984047,
        -0.03311237692832947,
        0.03269973397254944,
        0.04366229474544525,
        -0.13057374954223633,
        -0.18208760023117065,
        -0.03860096633434296,
        0.06768874824047089,
        0.09576426446437836,
        -0.044850632548332214,
        0.10841543972492218,
        0.09963737428188324,
        0.07956333458423615,
        -0.16920945048332214,
        -0.08509016782045364
      ],
      [
        -0.3677091598510742,
        0.007706642150878906,
        -0.10285669565200806,
        0.6502298712730408,
        -0.2542201578617096,
        -0.09640712291002274,
        0.16002081334590912,
        -0.0521572083234787,
        -0.05487309396266937,
        0.12156318128108978,
        -0.033608030527830124,
        -0.1423325538635254,
        0.06159857660531998,
        -0.07476993650197983,
        0.1227949783205986,
        -0.16489216685295105,
        -0.21214009821414948,
        0.03138704225420952,
        -0.11748050153255463,
        -0.06013427674770355,
        -0.2610984742641449,
        -0.04718521982431412,
        -0.18653422594070435,
        -0.0728917121887207,
        0.06409697234630585,
        0.06176050007343292,
        -0.006921052932739258,
        0.014480680227279663,
        -0.1431536078453064,
        -0.07553962618112564,
        0.033212095499038696,
        -0.0031352341175079346
      ],
      [
        -0.31719502806663513,
        -0.011186257004737854,
        0.6826267838478088,
        -0.16284769773483276,
        0.12449532002210617,
        0.15864185988903046,
        0.17567028105258942,
        0.12743891775608063,
        0.803442120552063,
        0.08680211007595062,
        -0.010272875428199768,
        -0.05243042856454849,
        -1.3132336139678955,
        0.2666511833667755,
        0.11596860736608505,
        -0.04821755737066269,
        0.01924879103899002,
        0.0767907053232193,
        -0.062456004321575165,
        -0.09568866342306137,
        -0.029011450707912445,
        0.25858327746391296,
        0.26098743081092834,
        -0.02114570140838623,
        -0.013031303882598877,
        -0.1091129407286644,
        0.06264127790927887,
        0.1374482959508896,
        0.06754213571548462,
        0.134759321808815,
        -0.11584804952144623,
        0.038503289222717285
      ],
      [
        -0.0819629654288292,
        0.04994705319404602,
        0.14450404047966003,
        -0.002899918705224991,
        0.13441245257854462,
        -0.07389383763074875,
        -0.03787337243556976,
        -0.16366046667099,
        0.01527358777821064,
        -0.09637962281703949,
        -0.04671261087059975,
        -0.00431273877620697,
        0.003840785473585129,
        0.08272247016429901,
        0.021519698202610016,
        0.09767350554466248,
        -0.13223540782928467,
        -0.23664948344230652,
        0.09030516445636749,
        -0.1160050630569458,
        0.07751699537038803,
        -0.05062847584486008,
        -0.24124780297279358,
        0.052188336849212646,
        0.14761961996555328,
        0.1748652309179306,
        0.1491437703371048,
        0.15777279436588287,
        0.04384167492389679,
        -0.028943613171577454,
        -0.10093491524457932,
        -0.16570058465003967
      ],
      [
        0.29261261224746704,
        -0.14319095015525818,
        -0.1464521586894989,
        -0.0937129333615303,
        0.5453699827194214,
        0.16786228120326996,
        0.05610404908657074,
        0.0005283057689666748,
        0.060098275542259216,
        -0.1542649269104004,
        0.2269688844680786,
        0.10542894899845123,
        -1.3735500574111938,
        0.24182435870170593,
        0.03450703248381615,
        0.38308578729629517,
        0.45755839347839355,
        0.29325011372566223,
        -0.08995109051465988,
        0.1415032297372818,
        0.5060516595840454,
        0.5169805884361267,
        0.41799890995025635,
        -0.09453026205301285,
        -0.015683382749557495,
        0.10291148722171783,
        0.06067660450935364,
        -0.06452614814043045,
        0.1031021922826767,
        0.10423754155635834,
        0.16985969245433807,
        -0.0782780572772026
      ],
      [
        0.3925778567790985,
        -0.07586382329463959,
        -0.6105707883834839,
        -0.8214303851127625,
        0.02342948690056801,
        0.07042863965034485,
        0.11082436144351959,
        -0.048615798354148865,
        -0.17243658006191254,
        -0.015745267271995544,
        0.1787588745355606,
        0.038309574127197266,
        0.20076976716518402,
        0.27409178018569946,
        0.07124151289463043,
        0.21329039335250854,
        -0.06373000144958496,
        -0.013056536205112934,
        -0.10465911775827408,
        -0.14666129648685455,
        0.12228608876466751,
        0.1208011656999588,
        -0.043831609189510345,
        -0.03642438352108002,
        -0.0021245181560516357,
        -0.12086908519268036,
        -0.08109436929225922,
        0.13472293317317963,
        0.021883800625801086,
        -0.17250016331672668,
        -0.1254851520061493,
        -0.010289669036865234
      ],
      [
        0.023835262283682823,
        0.1430983990430832,
        -0.15431667864322662,
        0.764751136302948,
        -0.05330084636807442,
        -0.16799166798591614,
        -0.1421223282814026,
        0.09871806204319,
        0.10627665370702744,
        0.15108443796634674,
        0.047733962535858154,
        -0.0650867223739624,
        0.3482789099216461,
        0.20299744606018066,
        0.1353050023317337,
        -0.06586457788944244,
        -0.0500982329249382,
        0.15905362367630005,
        -0.08801524341106415,
        -0.08485709130764008,
        0.05027199536561966,
        -0.10110338777303696,
        0.2093200832605362,
        -0.11652946472167969,
        -0.16661018133163452,
        -0.045436009764671326,
        -0.1200571060180664,
        0.04492838680744171,
        0.1722360998392105,
        0.05673880875110626,
        0.16866616904735565,
        -0.12481759488582611
      ],
      [
        0.2979773283004761,
        0.06202520430088043,
        0.112671859562397,
        -0.38458725810050964,
        0.055331774055957794,
        -0.11356893926858902,
        0.007441028952598572,
        -0.12646132707595825,
        0.06310820579528809,
        0.06912878155708313,
        -0.15991653501987457,
        -0.15025480091571808,
        0.22642453014850616,
        -0.1190916895866394,
        -0.5673854351043701,
        -0.006173995789140463,
        -0.3119005560874939,
        0.012058019638061523,
        0.17550508677959442,
        0.1380944699048996,
        -0.07062558829784393,
        -0.12004520744085312,
        -0.19606684148311615,
        -0.03267057240009308,
        -0.1748775690793991,
        0.10830707848072052,
        0.1532624512910843,
        0.012635946273803711,
        -0.11496870219707489,
        0.023117929697036743,
        -0.15444235503673553,
        -0.01988169550895691
      ],
      [
        -0.06472458690404892,
        -0.17123520374298096,
        0.033375322818756104,
        -0.06809672713279724,
        -0.1893695443868637,
        0.17168878018856049,
        0.049532487988471985,
        0.056318774819374084,
        0.13591068983078003,
        0.028143703937530518,
        0.014112303033471107,
        0.16946817934513092,
        -5.087450981140137,
        0.13347716629505157,
        -0.12354505807161331,
        -0.09313204884529114,
        -0.21765482425689697,
        0.1762399673461914,
        0.0931067019701004,
        0.03438617289066315,
        0.19367165863513947,
        0.0163878183811903,
        0.12480287998914719,
        0.08260168135166168,
        0.1571090966463089,
        -0.15129274129867554,
        0.09715987741947174,
        -0.032796576619148254,
        0.11055128276348114,
        0.018344387412071228,
        -0.004065722227096558,
        0.01899208128452301
      ],
      [
        -0.12262371182441711,
        0.08139516413211823,
        0.13855482637882233,
        0.31372126936912537,
        -0.33098721504211426,
        -0.09561286121606827,
        0.09001927077770233,
        0.16764257848262787,
        -0.19851471483707428,
        -0.16379976272583008,
        -0.10680148750543594,
        0.07334683835506439,
        0.003936144057661295,
        0.0008332181023433805,
        -0.08721259981393814,
        0.04150671139359474,
        -0.03163755312561989,
        -0.14588573575019836,
        -0.1308952271938324,
        -0.15560707449913025,
        -0.11432007700204849,
        -0.04787112772464752,
        -0.13477225601673126,
        0.08528105914592743,
        0.1438683420419693,
        0.14732877910137177,
        -0.07250836491584778,
        -0.01330558955669403,
        -0.07118621468544006,
        -0.16718211770057678,
        -0.103602834045887,
        -0.1158486008644104
      ],
      [
        -0.10974039137363434,
        0.04258142411708832,
        -0.07149504870176315,
        0.18153400719165802,
        0.15702316164970398,
        0.022828727960586548,
        0.1477634161710739,
        -0.06929904967546463,
        -0.619964063167572,
        0.09101788699626923,
        0.06793690472841263,
        0.08120529353618622,
        -0.22278834879398346,
        0.006357850041240454,
        -0.12097765505313873,
        0.022506587207317352,
        -0.11818059533834457,
        -0.11924413591623306,
        -0.1405102014541626,
        0.1587398499250412,
        -0.2288883477449417,
        -0.2814933657646179,
        -0.04076368734240532,
        0.0253017395734787,
        0.11710624396800995,
        -0.009915947914123535,
        -0.13823382556438446,
        0.00523415207862854,
        0.050685182213783264,
        -0.10265684872865677,
        0.11276875436306,
        -0.04949575662612915
      ],
      [
        0.1973838210105896,
        0.17177818715572357,
        0.2525339722633362,
        -1.124934196472168,
        0.08140051364898682,
        0.005121469497680664,
        -0.039954692125320435,
        -0.14132753014564514,
        0.03828081861138344,
        0.03780476748943329,
        0.16794079542160034,
        0.160467728972435,
        0.12834973633289337,
        0.18463324010372162,
        -0.0009391357889398932,
        0.2003718763589859,
        -0.098824642598629,
        0.17608274519443512,
        -0.08642514795064926,
        0.030167505145072937,
        -0.10175348818302155,
        0.22813206911087036,
        0.19665613770484924,
        0.09703056514263153,
        0.06477366387844086,
        0.08844690024852753,
        0.06265746057033539,
        0.16054211556911469,
        0.17457826435565948,
        0.09085352718830109,
        -0.017950087785720825,
        -0.035900890827178955
      ],
      [
        0.15979735553264618,
        0.1607319861650467,
        0.020974447950720787,
        -0.17128579318523407,
        -0.07317344099283218,
        0.13692082464694977,
        0.15062890946865082,
        -0.06726124882698059,
        -0.21418824791908264,
        0.089177206158638,
        -0.026990633457899094,
        0.0666932761669159,
        -0.08724728226661682,
        0.08326013386249542,
        0.09613019973039627,
        0.007729388307780027,
        -0.08873222768306732,
        0.06784427165985107,
        0.16070504486560822,
        -0.1486312747001648,
        -0.0889507308602333,
        -0.20951086282730103,
        -0.22392411530017853,
        0.009077593684196472,
        0.015142977237701416,
        0.07566501200199127,
        0.03548349440097809,
        -0.1612008810043335,
        -0.04114699363708496,
        -0.11791110038757324,
        -0.07870125025510788,
        0.040468961000442505
      ],
      [
        1.0819143056869507,
        -0.06537787616252899,
        -0.9107789397239685,
        -0.021085144951939583,
        -0.4586479961872101,
        -0.03794308006763458,
        -0.08345223218202591,
        -0.008848145604133606,
        0.19292768836021423,
        -0.06439490616321564,
        0.15407957136631012,
        0.13195066154003143,
        0.2586776614189148,
        -0.011585935950279236,
        -0.2851262092590332,
        0.15745653212070465,
        -0.18246740102767944,
        0.19487333297729492,
        -0.09157384932041168,
        0.12688495218753815,
        -0.031213300302624702,
        -0.13819445669651031,
        0.12401764839887619,
        -0.17563360929489136,
        0.09949557483196259,
        0.12513671815395355,
        0.14861302077770233,
        -0.0891757532954216,
        -0.10059331357479095,
        0.06241855025291443,
        0.014671534299850464,
        0.03974759578704834
      ],
      [
        -0.3469245731830597,
        -0.03717079758644104,
        0.34115588665008545,
        -0.30686280131340027,
        -0.13172514736652374,
        0.06750164926052094,
        0.02646888792514801,
        0.1679067760705948,
        -0.023727085441350937,
        0.09792648255825043,
        -0.10112417489290237,
        0.023763954639434814,
        0.3277985453605652,
        -0.07353340089321136,
        -0.7119562029838562,
        -0.1305011361837387,
        -0.2702594995498657,
        -0.14930430054664612,
        0.020517945289611816,
        -0.07668998092412949,
        -0.15509550273418427,
        -0.22928623855113983,
        -0.1543712466955185,
        0.1523028463125229,
        -0.10989942401647568,
        0.02958706021308899,
        0.14101757109165192,
        0.031098365783691406,
        0.029082566499710083,
        0.038862764835357666,
        0.11261801421642303,
        -0.021429389715194702
      ],
      [
        -0.4452176094055176,
        0.06593292951583862,
        -0.6995849609375,
        -0.4319712221622467,
        0.2643040716648102,
        -0.13122233748435974,
        -0.08838851749897003,
        0.1720106452703476,
        -0.03654570132493973,
        0.07337771356105804,
        0.1309792697429657,
        -0.018615707755088806,
        -0.4893840253353119,
        0.0956747904419899,
        -0.0010240116389468312,
        0.2906186878681183,
        -0.17377351224422455,
        0.18938130140304565,
        -0.1283319592475891,
        0.04285278916358948,
        0.08547693490982056,
        0.16467799246311188,
        0.2328100949525833,
        -0.1721947193145752,
        -0.021048933267593384,
        0.11138387024402618,
        0.16371144354343414,
        -0.01828153431415558,
        0.1410004049539566,
        -0.13367614150047302,
        0.09289263188838959,
        0.17505039274692535
      ],
      [
        0.14665377140045166,
        0.06810624897480011,
        0.3571506142616272,
        0.6695134043693542,
        -0.14040745794773102,
        0.16328836977481842,
        -0.10777511447668076,
        0.005499154329299927,
        0.2033921629190445,
        -0.050833940505981445,
        -0.23118190467357635,
        0.01895187795162201,
        -0.00469345785677433,
        -0.0349927693605423,
        -0.08279304206371307,
        0.05471014231443405,
        0.2832649350166321,
        -0.1395842581987381,
        -0.012173667550086975,
        -0.08661346137523651,
        0.09163539111614227,
        -0.09745281934738159,
        0.025869671255350113,
        0.01518702507019043,
        -0.060224369168281555,
        -0.10300131142139435,
        0.12441067397594452,
        -0.1108851507306099,
        0.1287253350019455,
        -0.08116528391838074,
        0.048459410667419434,
        -0.01974223554134369
      ],
      [
        0.13661573827266693,
        0.025937050580978394,
        0.02909885346889496,
        0.03397376835346222,
        -0.06736686825752258,
        0.05103763937950134,
        -0.05241888016462326,
        0.13555742800235748,
        -0.15175983309745789,
        -0.10259250551462173,
        0.01669268310070038,
        0.010605201125144958,
        -0.16030703485012054,
        -0.15854673087596893,
        -0.1191629022359848,
        -0.008962318301200867,
        -0.16592556238174438,
        0.002313360571861267,
        -0.12850446999073029,
        0.04724118113517761,
        -0.10051673650741577,
        0.05816812813282013,
        0.15601514279842377,
        -0.09697220474481583,
        -0.1313410848379135,
        0.06985650956630707,
        0.13121138513088226,
        0.17526976764202118,
        -0.16524556279182434,
        -0.04091539978981018,
        0.10952381789684296,
        0.09871099889278412
      ],
      [
        -0.06127969175577164,
        -0.11202636361122131,
        0.014981442131102085,
        -0.01628139056265354,
        -0.13846080005168915,
        0.04857417941093445,
        -0.17610660195350647,
        0.06804044544696808,
        -0.04175448417663574,
        0.13836045563220978,
        -0.11998571455478668,
        0.03684401512145996,
        -0.2367706447839737,
        -0.1968115270137787,
        -0.029010949656367302,
        0.08293107151985168,
        0.26782894134521484,
        0.05739434063434601,
        -0.05951748043298721,
        -0.15615834295749664,
        -0.025955962017178535,
        0.0024474244564771652,
        -0.020924512296915054,
        0.12395866215229034,
        -0.07006359100341797,
        0.07699890434741974,
        -0.052391670644283295,
        0.12080784142017365,
        -0.17158327996730804,
        -0.14448362588882446,
        -0.06993567943572998,
        -0.08374157547950745
      ],
      [
        -0.20837083458900452,
        0.08394734561443329,
        -0.1022648960351944,
        0.1457003951072693,
        -0.11294529587030411,
        0.1267002671957016,
        0.07541896402835846,
        -0.009141504764556885,
        0.15430021286010742,
        0.04872536659240723,
        0.023723650723695755,
        -0.0539538636803627,
        -0.17891928553581238,
        0.06323003768920898,
        -0.3921359181404114,
        0.05401448905467987,
        -0.12069931626319885,
        -0.142324298620224,
        0.1318254917860031,
        -0.11840684711933136,
        -0.16937251389026642,
        -0.21645787358283997,
        -0.17773452401161194,
        0.12177057564258575,
        -0.06463903933763504,
        -0.10680350661277771,
        -0.1568789929151535,
        0.16635815799236298,
        -0.1687542051076889,
        -0.10182193666696548,
        0.12300069630146027,
        0.0648302435874939
      ],
      [
        -0.014700631611049175,
        -0.07846876978874207,
        0.06123008579015732,
        0.3228795528411865,
        -0.14475250244140625,
        -0.16862095892429352,
        -0.15313203632831573,
        0.010119736194610596,
        0.36995401978492737,
        0.03706103563308716,
        0.05698808282613754,
        -0.08488377183675766,
        -0.019941937178373337,
        -0.26860910654067993,
        0.09528159350156784,
        -0.12247559428215027,
        -0.3260900676250458,
        -0.007297245319932699,
        -0.018086031079292297,
        0.1720520704984665,
        0.0675387978553772,
        -0.17830143868923187,
        -0.0930958017706871,
        0.10652513802051544,
        0.10418717563152313,
        -0.08776433765888214,
        -0.12665849924087524,
        -0.11538384854793549,
        0.1663498431444168,
        0.12173150479793549,
        0.15027020871639252,
        -0.15086612105369568
      ],
      [
        -0.08353228867053986,
        0.07622168958187103,
        0.054649125784635544,
        0.6644171476364136,
        0.13115890324115753,
        -0.06298306584358215,
        -0.10013958066701889,
        -0.13919350504875183,
        0.1619856208562851,
        -0.11272943764925003,
        -0.026499267667531967,
        0.0680408626794815,
        0.08505057543516159,
        -0.2529016137123108,
        -0.175269216299057,
        0.06835722178220749,
        -0.4130951762199402,
        0.019521256908774376,
        0.13245339691638947,
        0.1468922346830368,
        -0.08473044633865356,
        -0.11393462121486664,
        0.03148624673485756,
        -0.04504077136516571,
        -0.1239749938249588,
        -0.09981178492307663,
        0.0180940181016922,
        -0.11558869481086731,
        0.16321887075901031,
        -0.03561773896217346,
        -0.030278459191322327,
        0.08985061943531036
      ],
      [
        0.22373278439044952,
        -0.16539812088012695,
        -0.5622784495353699,
        0.8772380352020264,
        0.172940194606781,
        -0.08517005294561386,
        -0.14442956447601318,
        0.1639702171087265,
        0.2176472395658493,
        -0.09880515187978745,
        -0.15883441269397736,
        0.14455680549144745,
        0.26118361949920654,
        -0.0747842788696289,
        0.03823499381542206,
        0.02797843888401985,
        0.0061982134357094765,
        -0.23073497414588928,
        0.16528905928134918,
        0.15037177503108978,
        0.062230244278907776,
        -0.01869005337357521,
        0.10634835809469223,
        0.015165537595748901,
        -0.1529952436685562,
        0.0016435980796813965,
        -0.15742117166519165,
        -0.007764309644699097,
        -0.12928295135498047,
        -0.008086547255516052,
        0.11475817859172821,
        -0.16891959309577942
      ],
      [
        0.04661654308438301,
        0.14206846058368683,
        -0.054705843329429626,
        0.004050725139677525,
        0.01269647665321827,
        0.11827383935451508,
        0.1548767238855362,
        -0.11092281341552734,
        -0.24920494854450226,
        -0.08351954072713852,
        -0.14428557455539703,
        -0.07458613812923431,
        0.07326182723045349,
        -0.17944669723510742,
        -0.1691683977842331,
        -0.0658327266573906,
        -0.032900165766477585,
        0.023133421316742897,
        -0.017814844846725464,
        -0.05689597129821777,
        -0.2864200174808502,
        0.006086965557187796,
        -0.21154147386550903,
        0.012443751096725464,
        -0.1739346832036972,
        -0.1651950478553772,
        -0.044751375913619995,
        0.15427429974079132,
        0.07257363200187683,
        0.021680712699890137,
        -0.12769512832164764,
        -0.173641175031662
      ],
      [
        0.12235091626644135,
        0.028795838356018066,
        -0.19740237295627594,
        0.10335297882556915,
        -1.0976881980895996,
        0.05898183584213257,
        0.06049996614456177,
        0.0478278249502182,
        0.340728759765625,
        -0.1557820439338684,
        -0.11031368374824524,
        0.12350387871265411,
        0.323954701423645,
        -0.07959610223770142,
        -0.049152832478284836,
        -0.02933446876704693,
        -0.13538284599781036,
        0.10255995392799377,
        -0.045123159885406494,
        -0.14255619049072266,
        0.05850359424948692,
        -0.21902282536029816,
        0.123075932264328,
        0.019978970289230347,
        -0.07208915054798126,
        0.16816018521785736,
        -0.09884776175022125,
        0.042692795395851135,
        0.08018593490123749,
        -0.03381340205669403,
        0.06920495629310608,
        -0.1521502286195755
      ],
      [
        -0.0181424617767334,
        -0.05376460403203964,
        -0.08179549127817154,
        -0.14969266951084137,
        -0.027153773233294487,
        -0.03569278120994568,
        0.16079537570476532,
        -0.04967145621776581,
        -0.1438894420862198,
        0.11718402802944183,
        -0.14674368500709534,
        0.10193251073360443,
        -0.16059163212776184,
        -0.09370806068181992,
        0.05287676304578781,
        -0.08068415522575378,
        9.482568566454574e-05,
        -0.1379498392343521,
        -0.08519523590803146,
        0.11255799233913422,
        -0.05641834810376167,
        -0.10036169737577438,
        0.04404570534825325,
        0.1356448382139206,
        -0.026839494705200195,
        0.16228429973125458,
        0.04104924201965332,
        0.03695939481258392,
        0.11412973701953888,
        -0.03034968674182892,
        0.15675567090511322,
        0.15951575338840485
      ],
      [
        0.007155538070946932,
        -0.00429534912109375,
        0.1179635226726532,
        0.7600620985031128,
        -0.18637298047542572,
        -0.13006123900413513,
        -0.10601666569709778,
        -0.0058790892362594604,
        0.27104321122169495,
        -0.08907084912061691,
        0.08196952939033508,
        -0.058662936091423035,
        0.29253721237182617,
        0.0953589603304863,
        -0.12204509973526001,
        0.10388702899217606,
        0.11018358170986176,
        0.11678573489189148,
        -0.10339483618736267,
        -0.028469905257225037,
        -0.054137829691171646,
        0.0631537064909935,
        -0.017255745828151703,
        0.1289948970079422,
        0.16922639310359955,
        0.017307981848716736,
        0.009607940912246704,
        -0.004359021782875061,
        -0.06734135001897812,
        0.020876571536064148,
        0.05877019464969635,
        0.1656365543603897
      ],
      [
        -0.09962794184684753,
        -0.13025523722171783,
        0.055733274668455124,
        -0.15089282393455505,
        -0.06528821587562561,
        0.15043114125728607,
        0.14216385781764984,
        -0.13610310852527618,
        0.10476119816303253,
        0.17480330169200897,
        -0.05962297320365906,
        0.1116204708814621,
        -9.576065349392593e-05,
        0.05187564343214035,
        -0.12367434799671173,
        -0.046942099928855896,
        0.054599225521087646,
        -0.09689079970121384,
        -0.04514826834201813,
        0.06412205100059509,
        -0.10441425442695618,
        -0.13876251876354218,
        -0.13013535737991333,
        0.1382683366537094,
        -0.008080855011940002,
        0.06010374426841736,
        0.14922134578227997,
        0.1558954268693924,
        0.16365809738636017,
        -0.07982956618070602,
        0.13831214606761932,
        -0.14147287607192993
      ],
      [
        -0.10328173637390137,
        -0.11646206676959991,
        -0.2624496817588806,
        0.5930322408676147,
        -0.06631273031234741,
        -0.023013681173324585,
        0.03151071071624756,
        -0.08167407661676407,
        -0.4324681758880615,
        -0.028474286198616028,
        0.0262739360332489,
        -0.02866046130657196,
        0.11156599968671799,
        -0.12728624045848846,
        0.1613408476114273,
        0.07992814481258392,
        0.11586503684520721,
        -0.07839570194482803,
        -0.02138589322566986,
        0.00655674934387207,
        0.08072937279939651,
        -0.23914891481399536,
        -0.19307705760002136,
        -0.03836449980735779,
        0.025459855794906616,
        0.16981829702854156,
        -0.032123908400535583,
        0.14491935074329376,
        -0.07356753200292587,
        -0.16246141493320465,
        0.12747664749622345,
        -0.10302358865737915
      ],
      [
        -0.056377604603767395,
        -0.15553642809391022,
        0.056259021162986755,
        0.7270989418029785,
        -0.04986568167805672,
        0.04243764281272888,
        -0.15631254017353058,
        0.09667406976222992,
        0.19161170721054077,
        0.02960774302482605,
        0.12374437600374222,
        0.05883723497390747,
        0.33417218923568726,
        0.0822451040148735,
        0.012913155369460583,
        0.19011592864990234,
        0.07042481750249863,
        0.12202907353639603,
        -0.10644325613975525,
        -0.1271359920501709,
        0.11083340644836426,
        0.2261635959148407,
        -0.03219737112522125,
        0.15304242074489594,
        0.03906744718551636,
        0.1698237806558609,
        -0.022301897406578064,
        -0.12461043894290924,
        -0.033902063965797424,
        -0.0397820919752121,
        0.055836498737335205,
        0.042662203311920166
      ],
      [
        0.15437309443950653,
        0.17658375203609467,
        -1.5302152633666992,
        0.1452353298664093,
        -0.7179474234580994,
        -0.13584266602993011,
        0.05764929950237274,
        0.11286719143390656,
        -0.34194669127464294,
        -0.1488848626613617,
        -0.022760333493351936,
        -0.15888984501361847,
        -0.3145260810852051,
        0.031382251530885696,
        0.004055421333760023,
        0.18480783700942993,
        -0.00686816219240427,
        -0.15764136612415314,
        -0.11217258870601654,
        -0.01676991581916809,
        0.22136801481246948,
        0.05716519430279732,
        0.24371598660945892,
        -0.16134053468704224,
        -0.11342551559209824,
        -0.09996174275875092,
        -0.06138987839221954,
        0.02204512059688568,
        -0.13267824053764343,
        -0.09140747040510178,
        -0.12296762317419052,
        0.15270058810710907
      ],
      [
        0.08783477544784546,
        -0.14777420461177826,
        0.010053643025457859,
        0.15484866499900818,
        -0.6899862289428711,
        -0.0026452988386154175,
        0.16945169866085052,
        -0.09915108978748322,
        0.10255824029445648,
        -0.09729618579149246,
        0.030935129150748253,
        -0.050453171133995056,
        0.16425766050815582,
        -0.0786430612206459,
        0.004542296752333641,
        -0.026486974209547043,
        -0.20919226109981537,
        -0.03218714892864227,
        -0.1282859891653061,
        -0.07033339887857437,
        -0.062221113592386246,
        0.00790226086974144,
        0.018516965210437775,
        0.09496329724788666,
        0.017033904790878296,
        -0.1620716154575348,
        -0.005955830216407776,
        -0.0634521022439003,
        0.10955671966075897,
        0.013523399829864502,
        0.003911077976226807,
        -0.16084977984428406
      ],
      [
        0.015602086670696735,
        0.03588934242725372,
        -0.504845142364502,
        0.8104727864265442,
        -0.1331714540719986,
        -0.1740056425333023,
        -0.04014880955219269,
        0.15331630408763885,
        0.03545209765434265,
        0.08508960902690887,
        0.06259210407733917,
        0.09163399040699005,
        -0.0620170496404171,
        0.11433888971805573,
        -0.16900967061519623,
        0.03687054291367531,
        -0.4238330125808716,
        0.09412781149148941,
        0.09637512266635895,
        0.09186919033527374,
        0.13143017888069153,
        -0.17449861764907837,
        -0.1698392629623413,
        0.13510452210903168,
        -0.05850245803594589,
        0.019985467195510864,
        -0.0736381933093071,
        0.06544294953346252,
        0.10267175734043121,
        0.12932254374027252,
        -0.02707408368587494,
        0.09327088296413422
      ],
      [
        0.5415717363357544,
        0.10032008588314056,
        0.8127277493476868,
        -0.2635660469532013,
        -0.20704440772533417,
        0.018634095788002014,
        0.06579868495464325,
        -0.10756838321685791,
        -0.1216944083571434,
        -0.10096309334039688,
        -0.22662243247032166,
        -0.006043076515197754,
        0.31253892183303833,
        -0.2084033489227295,
        -0.2352854460477829,
        -0.09866771847009659,
        -0.19804544746875763,
        -0.46339312195777893,
        -0.09231042861938477,
        0.1187930554151535,
        -0.31995078921318054,
        -0.26953762769699097,
        -0.16132071614265442,
        0.07486449182033539,
        0.07636778056621552,
        0.035518333315849304,
        0.11135299503803253,
        0.060373395681381226,
        -0.07468541711568832,
        0.15217195451259613,
        -0.01351909339427948,
        -0.10030652582645416
      ],
      [
        0.24034230411052704,
        0.06617547571659088,
        0.24099192023277283,
        -0.7048889994621277,
        0.3707214593887329,
        -0.04962867498397827,
        -0.07596221566200256,
        0.15162651240825653,
        -0.3573198914527893,
        0.10051028430461884,
        -0.020285045728087425,
        -0.08313445001840591,
        0.325352281332016,
        0.1338994801044464,
        0.16887423396110535,
        0.1472949981689453,
        -0.4511292576789856,
        -0.007743957918137312,
        -0.1301407665014267,
        0.0024004876613616943,
        -0.11835372447967529,
        0.13380581140518188,
        0.1333708018064499,
        -0.014161214232444763,
        -0.12789538502693176,
        -0.0036630183458328247,
        -0.1600949913263321,
        -0.12182697653770447,
        -0.09985477477312088,
        -0.16599272191524506,
        0.09513567388057709,
        0.165707066655159
      ],
      [
        0.1027529314160347,
        -0.13051770627498627,
        0.45739123225212097,
        -0.04751838743686676,
        -0.20223094522953033,
        -0.17048762738704681,
        0.16216717660427094,
        0.12974081933498383,
        -0.6292863488197327,
        -0.07200002670288086,
        -0.17462745308876038,
        -0.0619434118270874,
        -0.05251331627368927,
        -0.1620548516511917,
        0.08477111160755157,
        -0.07070848345756531,
        0.1695292443037033,
        -0.2106066346168518,
        -0.1698632836341858,
        0.08926482498645782,
        0.07497666031122208,
        -0.12197789549827576,
        0.05325816571712494,
        0.1258193701505661,
        0.052624210715293884,
        -0.05070902407169342,
        -0.12185424566268921,
        -0.06513116508722305,
        0.005766764283180237,
        -0.13176120817661285,
        0.030531615018844604,
        -0.11460921168327332
      ],
      [
        -0.5141974687576294,
        0.15613336861133575,
        1.1229910850524902,
        -0.013724764809012413,
        0.22123584151268005,
        -0.0524170845746994,
        0.08953268826007843,
        0.037156373262405396,
        -1.56989586353302,
        -0.09363040328025818,
        -0.4306224286556244,
        -0.08119329065084457,
        0.32802295684814453,
        -0.11904540657997131,
        0.112233467400074,
        -0.14138610661029816,
        0.23208929598331451,
        -0.31997719407081604,
        0.05319710075855255,
        0.12620143592357635,
        -0.1763821393251419,
        0.07027887552976608,
        -0.13117632269859314,
        0.028972044587135315,
        -0.005384951829910278,
        0.13411597907543182,
        0.17218272387981415,
        -0.03542040288448334,
        -0.13143059611320496,
        -0.02413421869277954,
        0.03998924791812897,
        -0.04229678213596344
      ],
      [
        0.059928495436906815,
        -0.11092689633369446,
        0.04784592613577843,
        0.4564874768257141,
        -0.11852691322565079,
        0.15480367839336395,
        0.08243580162525177,
        -0.033147796988487244,
        -0.38319557905197144,
        0.10522721707820892,
        -0.1598261594772339,
        0.11281053721904755,
        -0.06877105683088303,
        -0.19789931178092957,
        -0.02545698918402195,
        -0.0366390161216259,
        0.060813333839178085,
        0.04253339022397995,
        0.1392601877450943,
        -0.03453415632247925,
        0.036037471145391464,
        -0.024795884266495705,
        -0.10830458253622055,
        0.04780881106853485,
        -0.0965445414185524,
        0.09319989383220673,
        0.06357738375663757,
        -0.12917855381965637,
        0.11329786479473114,
        -0.11939321458339691,
        0.16248108446598053,
        0.15075336396694183
      ],
      [
        -0.255010724067688,
        0.07538826763629913,
        -0.16630986332893372,
        0.6445488333702087,
        -0.3111543357372284,
        -0.016207322478294373,
        0.007554888725280762,
        0.0050521790981292725,
        -0.1916487067937851,
        -0.06768486648797989,
        -0.061499230563640594,
        -0.08872303366661072,
        0.07349628955125809,
        0.06766059249639511,
        0.19261981546878815,
        -0.13522225618362427,
        -0.062358710914850235,
        -0.04231753200292587,
        -0.1344124972820282,
        -0.08017659932374954,
        -0.07362513244152069,
        -0.22461368143558502,
        0.07613611221313477,
        -0.15893319249153137,
        0.0006998926401138306,
        0.0708969384431839,
        -0.11041915416717529,
        -0.05307948589324951,
        0.0612805038690567,
        0.12052436172962189,
        0.0818072110414505,
        0.05281919240951538
      ],
      [
        0.00542809534817934,
        0.01245434582233429,
        0.21528595685958862,
        0.3818616271018982,
        -0.14838020503520966,
        -0.10435888171195984,
        -0.10821468383073807,
        -0.1608007401227951,
        -0.2415744811296463,
        -0.1711343228816986,
        0.052304524928331375,
        0.10058282315731049,
        0.32623448967933655,
        0.00714528001844883,
        0.03952857851982117,
        0.023398863151669502,
        0.13736243546009064,
        0.05512434244155884,
        0.14472825825214386,
        -0.09619832783937454,
        -0.12942959368228912,
        0.05057602748274803,
        -0.011784210801124573,
        -0.08359506726264954,
        0.17245228588581085,
        -0.031329840421676636,
        0.07997812330722809,
        -0.1247359961271286,
        -0.0875735878944397,
        -0.1364588439464569,
        0.02288813889026642,
        0.022790342569351196
      ],
      [
        -0.6912184357643127,
        0.16630052030086517,
        -0.33545365929603577,
        0.1491502821445465,
        -0.34040483832359314,
        -0.09364429116249084,
        -0.16165569424629211,
        0.15972904860973358,
        -0.14260946214199066,
        -0.13812720775604248,
        -0.26764875650405884,
        -0.14900602400302887,
        -0.35377076268196106,
        0.0003771988849621266,
        -0.35077136754989624,
        0.013531612232327461,
        0.22072547674179077,
        -0.10831385850906372,
        -0.04757519066333771,
        -0.047177284955978394,
        -0.24642015993595123,
        0.0534406416118145,
        -0.01025235652923584,
        -0.0396871417760849,
        -0.01837661862373352,
        -0.0691671296954155,
        0.1410248726606369,
        0.04623863101005554,
        0.06745301187038422,
        -0.09495973587036133,
        -0.07018467783927917,
        -0.14325988292694092
      ],
      [
        0.1745096892118454,
        0.1224292665719986,
        -0.19833597540855408,
        0.5708611011505127,
        0.011217579245567322,
        -0.08716922998428345,
        0.07730443775653839,
        -0.018746301531791687,
        0.07844627648591995,
        -0.1579701155424118,
        -0.09465181827545166,
        0.16730789840221405,
        -0.03231823444366455,
        0.05651900917291641,
        -0.28444018959999084,
        -0.07275901734828949,
        -0.1273515820503235,
        -0.22115904092788696,
        0.15499494969844818,
        0.01587451994419098,
        0.0848437026143074,
        -0.18976062536239624,
        -0.13493332266807556,
        0.02308034896850586,
        -0.136742502450943,
        0.15743930637836456,
        -0.15967853367328644,
        0.08735693991184235,
        0.12196560204029083,
        0.13979990780353546,
        0.014242500066757202,
        0.0509316623210907
      ],
      [
        0.012743145227432251,
        0.036911025643348694,
        -0.014856651425361633,
        -0.08973698318004608,
        -0.16637203097343445,
        0.14685042202472687,
        -0.10051119327545166,
        0.07190924882888794,
        -0.1273488700389862,
        0.0054032206535339355,
        -0.056794777512550354,
        0.07512916624546051,
        0.06702077388763428,
        0.13637374341487885,
        -0.06990191340446472,
        0.018070191144943237,
        -0.1711379885673523,
        0.15848489105701447,
        0.04971827566623688,
        0.01864345371723175,
        -0.09407922625541687,
        -0.13566811382770538,
        -0.12770912051200867,
        0.04964989423751831,
        -0.02998480200767517,
        0.13981153070926666,
        -0.08767952024936676,
        -0.08911000192165375,
        -0.08828135579824448,
        0.11900489032268524,
        -0.028106853365898132,
        0.02910056710243225
      ],
      [
        -0.5634762644767761,
        -0.0421002060174942,
        -0.2996249794960022,
        -0.1368224173784256,
        0.07721888273954391,
        -0.07743635773658752,
        0.13642390072345734,
        -0.13609719276428223,
        -0.03908078745007515,
        0.12242279946804047,
        0.0664484053850174,
        -0.1556151807308197,
        0.7873339653015137,
        -0.11579413712024689,
        0.02908819168806076,
        -0.328490674495697,
        -0.3175278306007385,
        -0.07873301208019257,
        0.04495722055435181,
        -0.11374243348836899,
        -0.25356370210647583,
        -0.18122625350952148,
        -0.1558682769536972,
        0.1265135556459427,
        0.12946747243404388,
        0.034253329038619995,
        -0.060250312089920044,
        -0.04743345081806183,
        0.018679067492485046,
        -0.0018315762281417847,
        -0.173226997256279,
        0.008505105972290039
      ],
      [
        -0.2841607332229614,
        0.13149990141391754,
        0.4207417070865631,
        0.4068974554538727,
        0.1558002531528473,
        -0.16656751930713654,
        -0.15524256229400635,
        0.06306436657905579,
        0.25994500517845154,
        0.15246765315532684,
        0.05797840654850006,
        -0.02556118369102478,
        0.102554090321064,
        -0.2714667022228241,
        -0.09358241409063339,
        -0.11618807166814804,
        -0.5906925201416016,
        -0.07137537002563477,
        0.16526298224925995,
        -0.014657929539680481,
        -0.10534021258354187,
        -0.052609797567129135,
        -0.13848347961902618,
        -0.11506828665733337,
        -0.07747974991798401,
        0.08365799486637115,
        -0.1131865382194519,
        0.1440173238515854,
        0.10577230155467987,
        -0.06392884254455566,
        0.03778499364852905,
        0.17092905938625336
      ],
      [
        0.15579251945018768,
        0.08736060559749603,
        -0.12678851187229156,
        0.05331198871135712,
        -0.01090085506439209,
        -0.12961211800575256,
        0.0855918675661087,
        -0.10431977361440659,
        -0.060353316366672516,
        -0.0007430016994476318,
        -0.037769585847854614,
        -0.03177928924560547,
        -0.15648715198040009,
        -0.021331116557121277,
        -0.1693791002035141,
        -0.012273937463760376,
        0.019365176558494568,
        -0.17488959431648254,
        -0.16309025883674622,
        -0.11714065074920654,
        -0.02597135305404663,
        0.02260291576385498,
        -0.07555226981639862,
        0.15891756117343903,
        0.09792439639568329,
        0.03766016662120819,
        -0.14073121547698975,
        0.07049411535263062,
        0.14534975588321686,
        -0.1019497662782669,
        -0.06128297001123428,
        0.006687194108963013
      ],
      [
        0.060677267611026764,
        -0.010899931192398071,
        0.022929364815354347,
        0.7105520367622375,
        0.11502990871667862,
        0.1331464797258377,
        -0.032613396644592285,
        0.08588309586048126,
        -0.03179669380187988,
        0.08510904014110565,
        -0.05764499306678772,
        -0.07866553217172623,
        0.08692066371440887,
        -0.20770007371902466,
        0.09323323518037796,
        -0.07037949562072754,
        -0.11707022041082382,
        -0.24489961564540863,
        -0.1618005484342575,
        0.024643659591674805,
        0.006545490585267544,
        -0.08052186667919159,
        -0.12810716032981873,
        0.05178363621234894,
        -0.04977743327617645,
        -0.07675758749246597,
        -0.1317107379436493,
        -0.07102125138044357,
        -0.06911562383174896,
        0.11066864430904388,
        -0.09785682708024979,
        -0.060593701899051666
      ],
      [
        0.25609472393989563,
        0.14553554356098175,
        0.018198564648628235,
        0.642288863658905,
        -0.061251383274793625,
        -0.06810793280601501,
        0.14982827007770538,
        0.04571644961833954,
        0.0813836008310318,
        -0.11841711401939392,
        0.12445695698261261,
        -0.10300084948539734,
        0.08669712394475937,
        0.1777019202709198,
        0.18177646398544312,
        0.132554292678833,
        0.2820066213607788,
        0.07600676268339157,
        -0.02486276626586914,
        -0.14816543459892273,
        0.0024388087913393974,
        0.14445918798446655,
        -0.06753004342317581,
        -0.17654912173748016,
        -0.08021967858076096,
        -0.02946355938911438,
        -0.05598565936088562,
        -0.08808194100856781,
        0.1641853302717209,
        0.07272030413150787,
        -0.10217858105897903,
        -0.04515659809112549
      ],
      [
        0.044331952929496765,
        -0.03660699725151062,
        0.08555640280246735,
        -0.042729541659355164,
        0.08425439894199371,
        0.14742957055568695,
        0.09949512779712677,
        0.08359824120998383,
        0.05153854191303253,
        -0.04595509171485901,
        0.07884608209133148,
        -0.17594517767429352,
        -0.02112625539302826,
        -0.16842558979988098,
        -0.051230043172836304,
        -0.13721458613872528,
        -0.17215296626091003,
        0.03852224349975586,
        -0.10724520683288574,
        0.10258550941944122,
        -0.07425284385681152,
        0.017393052577972412,
        -0.10332246869802475,
        -0.0947035700082779,
        0.10058502852916718,
        0.15726546943187714,
        -0.011305928230285645,
        0.009702503681182861,
        -0.10983540117740631,
        -0.027784273028373718,
        0.06511089205741882,
        0.1405540555715561
      ],
      [
        -0.024785125628113747,
        -0.012926101684570312,
        0.17482097446918488,
        0.5184235572814941,
        -0.00722857192158699,
        -0.04964520037174225,
        -0.04550836980342865,
        0.06475591659545898,
        -0.04555811733007431,
        -0.06443805992603302,
        -0.17694143950939178,
        0.05784843862056732,
        0.2989676892757416,
        0.07325855642557144,
        -0.016379661858081818,
        0.1054479107260704,
        0.23475880920886993,
        0.05058109387755394,
        0.1563005894422531,
        0.15014050900936127,
        -0.19386135041713715,
        -0.001746739842928946,
        -0.1879866123199463,
        -0.0965428575873375,
        -0.045635759830474854,
        -0.07620543986558914,
        0.07474051415920258,
        0.1455473154783249,
        -0.02478717267513275,
        -0.08674994856119156,
        0.15874575078487396,
        -0.045226916670799255
      ],
      [
        0.02917533740401268,
        -0.0706850066781044,
        -0.022062968462705612,
        -0.046115536242723465,
        -0.15505869686603546,
        -0.0031973421573638916,
        0.038545161485672,
        -0.0104970782995224,
        -0.13144777715206146,
        0.016319632530212402,
        -0.09525026381015778,
        0.008999720215797424,
        -0.13876815140247345,
        -0.08771879971027374,
        -0.12856736779212952,
        -0.1087808758020401,
        0.07975880801677704,
        -0.02271989732980728,
        0.012017711997032166,
        0.01942729949951172,
        0.0661180168390274,
        0.11495204269886017,
        0.014483888633549213,
        0.10280124843120575,
        -0.1580578088760376,
        -0.13647305965423584,
        0.11816857755184174,
        0.11984683573246002,
        -0.08387332409620285,
        0.1597089022397995,
        -0.06321553140878677,
        -0.0994170606136322
      ],
      [
        0.9171984791755676,
        0.025150075554847717,
        0.770261287689209,
        0.31257614493370056,
        -0.21336984634399414,
        0.0815059095621109,
        0.09986342489719391,
        -0.06847935169935226,
        -0.2703472971916199,
        -0.015017285943031311,
        0.15862685441970825,
        -0.12980538606643677,
        0.12643519043922424,
        -0.16409580409526825,
        0.11811605095863342,
        -0.01839437335729599,
        -0.4665588140487671,
        0.0019641562830656767,
        -0.02520217001438141,
        -0.1742858737707138,
        -0.05874178931117058,
        -0.16346393525600433,
        -0.2751624286174774,
        0.09495659172534943,
        0.07613824307918549,
        0.07536967098712921,
        0.1718287318944931,
        -0.13908426463603973,
        -0.0407392680644989,
        -0.16275741159915924,
        -0.03660087287425995,
        0.09938625991344452
      ],
      [
        -0.15119586884975433,
        0.007544398307800293,
        -0.09285292774438858,
        -0.049934111535549164,
        -0.050655756145715714,
        0.10015060007572174,
        -0.054166264832019806,
        -0.15171264111995697,
        0.019213641062378883,
        -0.055372126400470734,
        -0.15177063643932343,
        -0.014835372567176819,
        -0.08105619251728058,
        -0.043614644557237625,
        -0.19642893970012665,
        0.04581683501601219,
        -0.16292805969715118,
        -0.11389601230621338,
        0.17297746241092682,
        0.08292688429355621,
        -0.10450463742017746,
        0.07089953124523163,
        0.07597329467535019,
        0.1654212325811386,
        0.024615108966827393,
        0.1710967868566513,
        0.07526962459087372,
        -0.16987688839435577,
        0.08003626763820648,
        0.08523581922054291,
        -0.028826966881752014,
        -0.07984931021928787
      ],
      [
        0.04370877146720886,
        -0.12322747707366943,
        -0.15713444352149963,
        0.04598166048526764,
        -0.012400135397911072,
        0.09257964789867401,
        -0.06684081256389618,
        -0.0631541833281517,
        -0.04916094243526459,
        0.08648477494716644,
        -0.0825803205370903,
        -0.07632821798324585,
        -0.14419744908809662,
        -0.12242598831653595,
        -0.06451675295829773,
        0.058740004897117615,
        -0.08572026342153549,
        -0.09208337962627411,
        0.06931789219379425,
        -0.10385274142026901,
        0.15060250461101532,
        -0.15654528141021729,
        0.08097986876964569,
        0.1280866414308548,
        -0.1498357057571411,
        0.14756609499454498,
        0.15824751555919647,
        -0.15018846094608307,
        0.1519816666841507,
        0.15317149460315704,
        -0.0024482309818267822,
        0.13143189251422882
      ],
      [
        -0.010811775922775269,
        0.07255415618419647,
        -0.027834564447402954,
        0.040716931223869324,
        -0.1192476749420166,
        0.007212087512016296,
        -0.11981426179409027,
        0.05188167095184326,
        0.1249995082616806,
        -0.012915059924125671,
        0.0019309967756271362,
        -0.12181714177131653,
        -0.14782105386257172,
        -0.014561101794242859,
        -0.09315110743045807,
        -0.07512098550796509,
        0.02793484926223755,
        -0.1134069487452507,
        0.1390373259782791,
        0.16302068531513214,
        0.15648595988750458,
        -0.16423022747039795,
        -0.11398912221193314,
        0.13672395050525665,
        0.04234352707862854,
        -0.08084998279809952,
        0.12440429627895355,
        -0.1153695359826088,
        0.038441240787506104,
        0.11239893734455109,
        -0.11017881333827972,
        -0.07611868530511856
      ],
      [
        -0.15629160404205322,
        0.15690435469150543,
        -0.1680157631635666,
        0.4316954016685486,
        0.11909642815589905,
        -0.1086566373705864,
        -0.06159885972738266,
        0.09710930287837982,
        -0.2602502703666687,
        0.005062595009803772,
        0.051035378128290176,
        -0.1531285047531128,
        -0.08257774263620377,
        0.028454942628741264,
        0.02785525470972061,
        -0.03593975305557251,
        -0.24784231185913086,
        -0.20078544318675995,
        -0.011223763227462769,
        -0.10215504467487335,
        -0.17931534349918365,
        -0.26594266295433044,
        -0.06836462765932083,
        0.0234060138463974,
        -0.011345386505126953,
        -0.023352891206741333,
        -0.10700336843729019,
        -0.030210718512535095,
        -0.009948238730430603,
        -0.04185730218887329,
        0.08472360670566559,
        0.12170232832431793
      ],
      [
        0.05045034736394882,
        -0.0302555114030838,
        0.008198946714401245,
        0.013773453421890736,
        -1.2448874711990356,
        0.020180627703666687,
        -0.02665938436985016,
        0.029226675629615784,
        -0.15874801576137543,
        -0.08842910081148148,
        -0.12363066524267197,
        0.08872629702091217,
        0.19109748303890228,
        -0.08501721173524857,
        -0.01882905885577202,
        0.11048555374145508,
        0.20346394181251526,
        -0.045258767902851105,
        0.08746109902858734,
        0.1691138595342636,
        0.07136352360248566,
        0.10079760104417801,
        0.04804791882634163,
        0.09652550518512726,
        0.048180773854255676,
        -0.08029360324144363,
        -0.040647074580192566,
        -0.06765376031398773,
        -0.10958033055067062,
        0.10376544296741486,
        0.1485346108675003,
        0.15827040374279022
      ],
      [
        0.333732932806015,
        -0.1578592211008072,
        -0.8439081907272339,
        0.11113255470991135,
        -0.23486469686031342,
        -0.029849529266357422,
        0.1216583400964737,
        -0.14007049798965454,
        -0.269069641828537,
        -0.06264844536781311,
        -0.04251822456717491,
        -0.1546819806098938,
        -0.5834324359893799,
        -0.06396102160215378,
        0.05782261863350868,
        -0.0041136471554636955,
        0.21222081780433655,
        -0.20036515593528748,
        0.1048545390367508,
        -0.052670687437057495,
        -0.27717864513397217,
        -0.26190078258514404,
        -0.23123280704021454,
        -0.09526915848255157,
        0.011162027716636658,
        0.10617567598819733,
        0.17125211656093597,
        0.021021723747253418,
        -0.04379156231880188,
        -0.15837809443473816,
        -0.16396856307983398,
        -0.16715461015701294
      ],
      [
        0.7262983918190002,
        0.15250231325626373,
        1.2507375478744507,
        0.032688893377780914,
        0.26763054728507996,
        0.09582267701625824,
        -0.13182920217514038,
        -0.05755992978811264,
        -0.9160788059234619,
        -0.037378862500190735,
        -0.7611603736877441,
        0.04137571156024933,
        -0.6167808175086975,
        -0.08927824348211288,
        0.25134700536727905,
        -0.006183295045047998,
        0.025527071207761765,
        -0.8002930879592896,
        0.029540076851844788,
        0.08343131840229034,
        -0.11777040362358093,
        -0.21922321617603302,
        -0.10462721437215805,
        0.1570773869752884,
        0.10573919117450714,
        0.06782092154026031,
        0.004219070076942444,
        -0.15814203023910522,
        0.025705233216285706,
        -0.0448438823223114,
        -0.09824040532112122,
        0.06971590220928192
      ],
      [
        0.037340544164180756,
        -0.003983110189437866,
        -0.13843628764152527,
        -0.1126105934381485,
        -0.2246904969215393,
        0.06036621332168579,
        -0.05158954858779907,
        0.16995231807231903,
        -0.2106914222240448,
        0.11576937139034271,
        0.0556911826133728,
        0.1556336134672165,
        -0.22121013700962067,
        0.032677751034498215,
        -0.2235872894525528,
        -0.046219129115343094,
        0.08841608464717865,
        0.06824524700641632,
        -0.11510533839464188,
        0.10371197760105133,
        0.03660251945257187,
        -0.10446365922689438,
        0.0911407470703125,
        0.10147817432880402,
        -0.038551926612854004,
        0.028764471411705017,
        -0.06651771813631058,
        0.08243162930011749,
        0.1538483053445816,
        -0.00920531153678894,
        -0.16255545616149902,
        -0.04351116716861725
      ],
      [
        -0.4324159324169159,
        0.05157330632209778,
        -0.057138729840517044,
        0.783632755279541,
        -0.03578419238328934,
        0.1499241441488266,
        0.02322085201740265,
        -0.04372453689575195,
        -0.00859992578625679,
        0.056529104709625244,
        0.04773860424757004,
        -0.1415986567735672,
        -0.04222894459962845,
        -0.03639503940939903,
        -0.10307689011096954,
        -0.12012269347906113,
        -0.3263522982597351,
        0.1278129369020462,
        -0.1233753114938736,
        0.03243976831436157,
        -0.10118594765663147,
        -0.21946367621421814,
        0.01846727728843689,
        -0.11952218413352966,
        0.05689695477485657,
        -0.05819453299045563,
        0.14679427444934845,
        0.14782987534999847,
        -0.10964477062225342,
        0.09295602142810822,
        -0.08422838896512985,
        -0.07430179417133331
      ],
      [
        0.09975308179855347,
        -0.17059944570064545,
        0.0015288593713194132,
        0.7041672468185425,
        0.06781337410211563,
        0.07135826349258423,
        -0.1743183732032776,
        -0.0805448591709137,
        0.17183338105678558,
        -0.04007768630981445,
        0.0272391214966774,
        -0.10466421395540237,
        0.015024547465145588,
        0.1347796469926834,
        -0.1091710776090622,
        -0.029964515939354897,
        0.3141213059425354,
        -0.03190750628709793,
        0.10303936898708344,
        0.1199856549501419,
        0.009034768678247929,
        -0.04648379236459732,
        -0.055197253823280334,
        0.1554584950208664,
        0.1611603945493698,
        0.11107130348682404,
        -0.04569375514984131,
        -0.09094078093767166,
        0.09875519573688507,
        -0.03337591886520386,
        -0.05263363569974899,
        0.1609678417444229
      ],
      [
        0.10177159309387207,
        0.09990711510181427,
        -0.3976995348930359,
        0.7747511267662048,
        0.22408443689346313,
        0.10920874774456024,
        -0.02531684935092926,
        -0.042783454060554504,
        -0.17638984322547913,
        -0.03537650406360626,
        0.08853142708539963,
        0.1609661728143692,
        0.018885528668761253,
        -0.08746139705181122,
        -0.06902506947517395,
        -0.03205372393131256,
        0.19139033555984497,
        -0.1614108830690384,
        0.1540326327085495,
        -0.0706469863653183,
        -0.07051404565572739,
        -0.0897926464676857,
        -0.1559753268957138,
        -0.025938600301742554,
        0.04382903873920441,
        -0.1345168650150299,
        0.11096341907978058,
        0.16750191152095795,
        0.12566490471363068,
        0.03265978395938873,
        0.003821820020675659,
        -0.05514521151781082
      ],
      [
        -0.008324878290295601,
        -0.015711545944213867,
        -0.2600540816783905,
        0.8064548969268799,
        -0.17629359662532806,
        0.07752399146556854,
        0.014832168817520142,
        -0.11006657779216766,
        -0.2295566350221634,
        -0.11454904079437256,
        0.006231910083442926,
        0.051513925194740295,
        0.10748601704835892,
        -0.0949292778968811,
        -0.041859738528728485,
        -0.15689563751220703,
        -0.580823540687561,
        0.10147145390510559,
        0.015220284461975098,
        0.13841404020786285,
        0.04205502197146416,
        -0.1374971866607666,
        -0.03081757202744484,
        -0.16759172081947327,
        -0.07251879572868347,
        -0.06614755839109421,
        0.13628758490085602,
        0.12363572418689728,
        -0.05163221061229706,
        0.052338019013404846,
        0.06930738687515259,
        0.14996840059757233
      ],
      [
        0.12870155274868011,
        0.15737031400203705,
        0.25973576307296753,
        0.016435889527201653,
        -0.301636278629303,
        0.11582387983798981,
        -0.10790115594863892,
        -0.10686472058296204,
        -0.7030794620513916,
        0.02367272973060608,
        -0.20961354672908783,
        0.002600938081741333,
        -0.03331683576107025,
        0.024914581328630447,
        0.12642505764961243,
        -0.03865466266870499,
        0.09826983511447906,
        0.08363337069749832,
        0.05181242525577545,
        0.14977069199085236,
        -0.03281274810433388,
        -0.23766915500164032,
        0.04169623926281929,
        -0.02209341526031494,
        -0.10290475189685822,
        0.09497670829296112,
        0.16546164453029633,
        -0.13458135724067688,
        -0.009211868047714233,
        -0.09671337902545929,
        0.11069630086421967,
        -0.10864696651697159
      ],
      [
        -0.20192641019821167,
        0.14952029287815094,
        0.5793810486793518,
        0.24957460165023804,
        0.07293561100959778,
        -0.04411590099334717,
        0.05908399820327759,
        0.15230582654476166,
        0.7159184217453003,
        -0.09999916702508926,
        0.19381515681743622,
        -0.018812671303749084,
        0.28991466760635376,
        -0.028200240805745125,
        -0.07509158551692963,
        0.08732545375823975,
        -0.6498922109603882,
        0.045970525592565536,
        0.030059024691581726,
        -0.09753372520208359,
        0.03477175533771515,
        -0.08714879304170609,
        -0.031551774591207504,
        -0.04735192656517029,
        -0.00849616527557373,
        -0.05342806130647659,
        -0.14941264688968658,
        0.038761064410209656,
        -0.13167758285999298,
        0.13515840470790863,
        0.16575013101100922,
        -0.039767831563949585
      ],
      [
        -0.25832879543304443,
        0.15485407412052155,
        -0.32815641164779663,
        -0.09397540986537933,
        -0.22151079773902893,
